/*
 * Copyright (c) 2025 EdgeImpulse Inc.
 *
 * Generated by Edge Impulse and licensed under the applicable Edge Impulse
 * Terms of Service. Community and Professional Terms of Service
 * (https://edgeimpulse.com/legal/terms-of-service) or Enterprise Terms of
 * Service (https://edgeimpulse.com/legal/enterprise-terms-of-service),
 * according to your product plan subscription (the “License”).
 *
 * This software, documentation and other associated files (collectively referred
 * to as the “Software”) is a single SDK variation generated by the Edge Impulse
 * platform and requires an active paid Edge Impulse subscription to use this
 * Software for any purpose.
 *
 * You may NOT use this Software unless you have an active Edge Impulse subscription
 * that meets the eligibility requirements for the applicable License, subject to
 * your full and continued compliance with the terms and conditions of the License,
 * including without limitation any usage restrictions under the applicable License.
 *
 * If you do not have an active Edge Impulse product plan subscription, or if use
 * of this Software exceeds the usage limitations of your Edge Impulse product plan
 * subscription, you are not permitted to use this Software and must immediately
 * delete and erase all copies of this Software within your control or possession.
 * Edge Impulse reserves all rights and remedies available to enforce its rights.
 *
 * Unless required by applicable law or agreed to in writing, the Software is
 * distributed on an "AS IS" BASIS, WITHOUT WARRANTIES OR CONDITIONS OF ANY KIND,
 * either express or implied. See the License for the specific language governing
 * permissions, disclaimers and limitations under the License.
 */
// Generated on: 09.06.2025 22:08:20

#include <stdio.h>
#include <stdlib.h>
#include "edge-impulse-sdk/tensorflow/lite/c/builtin_op_data.h"
#include "edge-impulse-sdk/tensorflow/lite/c/common.h"
#include "edge-impulse-sdk/tensorflow/lite/micro/micro_mutable_op_resolver.h"
#include "edge-impulse-sdk/porting/ei_classifier_porting.h"

#if EI_CLASSIFIER_PRINT_STATE
#if defined(__cplusplus) && EI_C_LINKAGE == 1
extern "C" {
    extern void ei_printf(const char *format, ...);
}
#else
extern void ei_printf(const char *format, ...);
#endif
#endif

#define STRINGIZE(x) #x
#define STRINGIZE_VALUE_OF(x) STRINGIZE(x)

#if defined (__GNUC__)  /* GNU compiler */
#define ALIGN(X) __attribute__((aligned(X)))
#define DEFINE_SECTION(x) __attribute__((section(x)))
#elif defined (_MSC_VER)
#define ALIGN(X) __declspec(align(X))
#elif defined (__TASKING__) /* TASKING Compiler */
#define ALIGN(X) __align(X)
#define DEFINE_SECTION(x) __attribute__((section(x)))
#elif defined (__ARMCC_VERSION) /* Arm Compiler */
#define ALIGN(X) __ALIGNED(x)
#define DEFINE_SECTION(x) __attribute__((section(x)))
#elif defined (__ICCARM__) /* IAR Compiler */
#define ALIGN(x) __attribute__((aligned(x)))
#define DEFINE_SECTION(x) __attribute__((section(x)))
#elif defined (__clang__) /* LLVM/Clang Compiler */
#define ALIGN(X) __ALIGNED(x)
#define DEFINE_SECTION(x) __attribute__((section(x)))
#endif

#if defined(EI_MODEL_SECTION) && (defined(__GNUC__) || defined(__clang__))
#define MODEL_SECTION(X) __attribute__((section(STRINGIZE_VALUE_OF(X))))
#else
#define MODEL_SECTION(X)
#endif

#ifndef EI_MAX_SCRATCH_BUFFER_COUNT
#ifndef CONFIG_IDF_TARGET_ESP32S3
#define EI_MAX_SCRATCH_BUFFER_COUNT 14
#else
#define EI_MAX_SCRATCH_BUFFER_COUNT 28
#endif // CONFIG_IDF_TARGET_ESP32S3
#endif // EI_MAX_SCRATCH_BUFFER_COUNT

#ifndef EI_MAX_OVERFLOW_BUFFER_COUNT
#define EI_MAX_OVERFLOW_BUFFER_COUNT 10
#endif // EI_MAX_OVERFLOW_BUFFER_COUNT

using namespace tflite;
using namespace tflite::ops;
using namespace tflite::ops::micro;

namespace {

#if defined(EI_CLASSIFIER_ALLOCATION_STATIC_HIMAX) || defined(EI_CLASSIFIER_ALLOCATION_STATIC_HIMAX_GNU)
constexpr int kTensorArenaSize = 242656;
#else
constexpr int kTensorArenaSize = 241632;
#endif

#if defined(EI_CLASSIFIER_ALLOCATION_STATIC)
#if defined (EI_TENSOR_ARENA_LOCATION)
uint8_t tensor_arena[kTensorArenaSize] ALIGN(16) DEFINE_SECTION(STRINGIZE_VALUE_OF(EI_TENSOR_ARENA_LOCATION));
#else
uint8_t tensor_arena[kTensorArenaSize] ALIGN(16);
#endif
#elif defined(EI_CLASSIFIER_ALLOCATION_STATIC_HIMAX)
#pragma Bss(".tensor_arena")
uint8_t tensor_arena[kTensorArenaSize] ALIGN(16);
#pragma Bss()
#elif defined(EI_CLASSIFIER_ALLOCATION_STATIC_HIMAX_GNU)
uint8_t tensor_arena[kTensorArenaSize] ALIGN(16) __attribute__((section(".tensor_arena")));
#else
#define EI_CLASSIFIER_ALLOCATION_HEAP 1
uint8_t* tensor_arena = NULL;
#endif

static uint8_t* tensor_boundary;
static uint8_t* current_location;

template <int SZ, class T> struct TfArray {
  int sz; T elem[SZ];
};

enum used_operators_e {
  OP_CONV_2D, OP_DEPTHWISE_CONV_2D, OP_PAD, OP_ADD, OP_SOFTMAX,  OP_LAST
};

struct TensorInfo_t { // subset of TfLiteTensor used for initialization from constant memory
  TfLiteAllocationType allocation_type;
  TfLiteType type;
  void* data;
  TfLiteIntArray* dims;
  size_t bytes;
  TfLiteQuantization quantization;
};

typedef struct {
  TfLiteTensor tensor;
  int16_t index;
} TfLiteTensorWithIndex;

typedef struct {
  TfLiteEvalTensor tensor;
  int16_t index;
} TfLiteEvalTensorWithIndex;

TfLiteContext ctx{};
static const int MAX_TFL_TENSOR_COUNT = 4;
static TfLiteTensorWithIndex tflTensors[MAX_TFL_TENSOR_COUNT];
static const int MAX_TFL_EVAL_COUNT = 4;
static TfLiteEvalTensorWithIndex tflEvalTensors[MAX_TFL_EVAL_COUNT];
TfLiteRegistration registrations[OP_LAST];

namespace g0 {
const TfArray<4, int> tensor_dimension0 = { 4, { 1,96,96,3 } };
const TfArray<1, float> quant0_scale = { 1, { 0.0039215688593685627, } };
const TfArray<1, int> quant0_zero = { 1, { -128 } };
const TfLiteAffineQuantization quant0 = { (TfLiteFloatArray*)&quant0_scale, (TfLiteIntArray*)&quant0_zero, 0 };
const MODEL_SECTION(EI_MODEL_SECTION) ALIGN(16) int32_t tensor_data1[4*2] = { 
  0, 0, 
  0, 1, 
  0, 1, 
  0, 0, 
};
const TfArray<2, int> tensor_dimension1 = { 2, { 4,2 } };
const MODEL_SECTION(EI_MODEL_SECTION) ALIGN(8) int32_t tensor_data2[3] = { 19965, -27758, -28696, };
const TfArray<1, int> tensor_dimension2 = { 1, { 3 } };
const TfArray<3, float> quant2_scale = { 3, { 0.00027071830118075013, 0.0002143010642612353, 0.00021154900605324656, } };
const TfArray<3, int> quant2_zero = { 3, { 0,0,0 } };
const TfLiteAffineQuantization quant2 = { (TfLiteFloatArray*)&quant2_scale, (TfLiteIntArray*)&quant2_zero, 0 };
const MODEL_SECTION(EI_MODEL_SECTION) ALIGN(16) int8_t tensor_data3[3*1*1*32] = { 
  /* [0][0][][] */ 7,46,118,-57,-87,-3,10,15,-16,61,20,15,-25,-72,75,17,-50,42,104,87,-57,-29,69,-49,-127,76,-54,39,121,33,-18,33, 
  /* [1][0][][] */ 66,-43,-73,14,-16,127,-25,-13,122,-73,-3,-115,-63,103,36,-51,90,-45,-38,-95,-118,21,103,74,36,28,4,-33,-98,-58,-1,-61, 
  /* [2][0][][] */ -30,78,-88,75,87,-41,-36,115,93,25,125,-49,-100,-89,85,119,-84,-54,-9,-112,77,118,-75,-102,96,-62,-17,-127,-26,-94,86,-61, 
};
const TfArray<4, int> tensor_dimension3 = { 4, { 3,1,1,32 } };
const TfArray<3, float> quant3_scale = { 3, { 0.0041827824898064137, 0.0033110976219177246, 0.0032685764599591494, } };
const TfLiteAffineQuantization quant3 = { (TfLiteFloatArray*)&quant3_scale, (TfLiteIntArray*)&g0::quant2_zero, 0 };
const MODEL_SECTION(EI_MODEL_SECTION) ALIGN(16) int32_t tensor_data4[32] = { 157, 178, 398, -311, -67, -7, 154, 5, -40, 648, -31, 1338, -352, -119, -115, -8, -57, -340, 1309, -249, -89, -85, -27, 313, 189, 1190, -402, 80, 1499, 400, -264, 1677, };
const TfArray<1, int> tensor_dimension4 = { 1, { 32 } };
const TfArray<32, float> quant4_scale = { 32, { 4.3972104322165251e-05, 4.2763855162775144e-05, 4.1683440940687433e-05, 4.1814670112216845e-05, 4.3192212615394965e-05, 4.7375586291309446e-05, 4.376316792331636e-05, 4.467821418074891e-05, 4.5171236706664786e-05, 4.9824800953501835e-05, 4.2812323954422027e-05, 5.7729328545974568e-05, 4.3880769226234406e-05, 4.4521810195874423e-05, 4.3836160330101848e-05, 4.4487082050181925e-05, 4.3328607716830447e-05, 4.3917898437939584e-05, 6.3834602769929916e-05, 4.4304939365247265e-05, 4.5731969294138253e-05, 4.6258261136244982e-05, 4.7083714889595285e-05, 4.5555574615718797e-05, 4.9177611799677834e-05, 4.3420892325229943e-05, 4.7310339141404256e-05, 4.4438031181925908e-05, 5.4779418860562146e-05, 4.1612875065766275e-05, 4.1127470467472449e-05, 5.2933308325009421e-05, } };
const TfArray<32, int> quant4_zero = { 32, { 0,0,0,0,0,0,0,0,0,0,0,0,0,0,0,0,0,0,0,0,0,0,0,0,0,0,0,0,0,0,0,0 } };
const TfLiteAffineQuantization quant4 = { (TfLiteFloatArray*)&quant4_scale, (TfLiteIntArray*)&quant4_zero, 0 };
const MODEL_SECTION(EI_MODEL_SECTION) ALIGN(16) int8_t tensor_data5[32*1*1*96] = { 
  /* [0][0][][] */ -63,-57,94,4,108,-31,-85,-87,56,-101,-100,-2,58,14,-49,66,-50,-27,-68,-44,-70,-98,11,101,-104,13,81,-59,119,19,-9,-85,83,-58,-96,59,-100,-82,-97,33,75,-75,-89,106,38,-95,111,-11,19,-39,-38,109,-71,-53,-87,87,1,82,127,-99,-73,93,-51,68,-9,20,70,93,64,99,98,-112,109,-114,38,84,-90,21,-58,36,54,31,81,8,-56,-42,-71,106,27,114,-20,-114,6,61,26,21, 
  /* [1][0][][] */ -54,40,-68,0,-42,81,44,5,85,-107,-101,116,56,-19,31,49,113,-37,32,123,-39,-2,36,35,21,16,-37,113,12,-16,96,-62,58,107,-3,26,54,67,-12,-59,-58,11,-25,-96,-29,36,-30,-51,-23,-96,117,62,8,88,-73,-42,46,78,46,84,-44,108,-54,-100,-55,42,80,46,103,26,4,16,-126,98,-53,52,82,-47,-35,57,-72,87,-45,-127,34,127,-80,-59,89,87,97,10,94,98,34,-6, 
  /* [2][0][][] */ 50,54,-38,108,-63,-36,96,113,-95,118,-36,115,91,-17,96,-112,-51,-26,47,46,-105,-5,127,27,-7,77,109,30,-74,68,87,91,-71,-19,-94,-92,-76,98,126,-29,-120,-77,20,1,-78,116,-30,-74,109,20,87,-100,-36,61,26,17,-64,86,-83,13,-31,76,-47,63,83,44,61,92,-93,71,10,-79,33,-67,41,46,-66,-11,9,34,38,-105,-17,-52,5,-99,-18,-43,89,116,-22,-12,-53,-87,-56,-69, 
  /* [3][0][][] */ 69,-7,32,-32,-73,38,-117,26,46,11,64,12,93,101,72,-1,106,100,-71,21,123,-95,-74,-119,-41,-114,-80,106,50,-98,84,6,-68,-44,-20,-27,-100,-28,26,48,-28,-96,-104,-4,72,28,-53,-89,64,-79,46,0,86,22,94,-99,-125,-127,-124,-68,-91,31,-35,68,52,-32,-68,-37,-30,-80,-7,109,17,-115,50,-58,35,93,98,-82,-89,-122,44,93,28,47,-50,-115,-80,45,3,-115,104,-94,-90,34, 
  /* [4][0][][] */ 57,103,-6,50,-34,-12,36,0,62,66,-6,71,-9,-26,-8,-82,-23,1,-61,25,120,-91,79,34,-43,-2,69,-55,-41,36,-74,-52,87,116,29,-114,-52,0,-127,55,-44,-59,-90,-94,35,103,36,57,31,-34,-11,-66,-89,54,-86,31,61,-118,25,16,30,-88,-17,-80,-37,62,2,-32,23,-119,-125,-71,-67,25,111,50,72,-30,-1,-82,15,-35,-82,-24,4,79,77,12,-104,-66,55,35,45,106,-87,-35, 
  /* [5][0][][] */ 65,-101,54,65,42,-111,26,42,93,-127,-1,-56,23,92,18,39,60,59,-64,103,32,47,17,-26,-100,-47,-10,-89,55,39,18,-91,-30,-1,-60,0,-101,-35,23,24,-80,-43,38,86,-50,25,34,-44,-96,113,18,37,38,9,33,-30,80,55,-39,-35,33,-53,36,-43,-35,94,-25,27,77,3,102,-60,-37,42,-20,-69,19,-43,12,70,101,42,27,105,-73,71,2,39,66,-90,110,88,-18,25,65,-74, 
  /* [6][0][][] */ 18,-36,127,85,-105,-50,3,74,-9,-69,10,-89,88,56,119,-110,47,4,6,86,-76,-108,117,63,-52,-81,-5,-45,-27,-120,50,-77,-88,-113,-40,-91,2,39,-99,81,85,57,27,-8,-110,103,-89,-42,-78,7,-26,-68,63,-51,92,-29,10,-8,-69,119,-98,10,62,-79,-53,65,107,-44,73,-2,-93,-6,59,-67,-79,-28,-82,-87,-51,-8,32,-26,42,-27,-67,-82,-34,-97,82,93,99,17,-53,-69,72,-26, 
  /* [7][0][][] */ 114,64,-40,-43,-71,111,-15,-11,114,-11,-91,27,24,-78,47,61,52,20,-6,119,60,33,-10,88,-84,101,44,54,-70,102,-24,35,31,24,72,84,-104,88,-16,-21,95,-70,75,63,51,-3,100,-105,54,-45,-104,-60,-27,87,19,36,127,-109,-2,-56,22,-15,89,-119,-64,-48,65,26,-104,11,37,89,73,27,58,54,-54,47,-91,24,95,-29,-10,-74,87,39,-112,98,86,10,89,49,-43,-33,4,-71, 
  /* [8][0][][] */ 6,18,-55,-92,63,21,-68,-32,5,11,44,104,4,-36,-83,-68,-63,95,-62,32,37,-24,75,107,-127,96,49,67,-54,30,-87,111,99,-32,53,-22,110,6,-36,73,80,102,-108,-116,-14,-25,-19,106,22,-68,-59,8,-60,-7,-28,-98,49,109,-80,100,120,40,51,120,-32,-38,-21,98,-75,47,35,5,76,58,13,16,-34,98,82,53,41,83,-98,-76,26,43,73,-32,43,-33,-74,99,-68,-89,-38,57, 
  /* [9][0][][] */ 12,13,127,54,71,-81,-27,-88,47,78,0,58,-25,-61,-69,-15,26,8,-81,-60,8,104,-76,-76,115,0,2,45,-3,-68,-67,86,41,3,36,-12,-45,20,6,-29,48,-47,60,-67,83,20,-88,59,44,-14,-68,-47,78,-65,-42,98,87,-53,-20,13,-77,103,80,-67,-67,11,110,51,-25,99,97,-72,14,87,-101,-62,-70,-83,-21,89,39,25,95,19,-25,-70,40,-14,94,39,-16,82,102,14,58,-20, 
  /* [10][0][][] */ -62,79,86,-70,-19,104,111,15,39,12,25,-55,60,89,-33,0,-35,85,-106,-52,-11,27,51,-65,11,56,-114,-115,-44,77,-101,-83,93,100,127,59,-45,11,-43,40,-32,119,-123,-43,-95,-60,-3,-58,1,12,38,17,57,25,-63,-28,-85,-37,19,-47,13,68,126,31,120,-71,-99,-20,22,-35,-122,-60,78,67,-83,104,-8,56,71,1,85,4,64,100,-99,76,93,-17,44,13,0,-88,-43,-43,-39,-79, 
  /* [11][0][][] */ 123,53,33,110,89,69,60,65,103,127,-35,75,29,-46,60,-32,-24,-64,64,3,35,85,49,-56,-46,-76,-2,81,49,-26,44,-7,-53,-27,50,71,-20,71,44,-32,-5,92,-35,46,0,-26,-58,-51,77,45,127,26,-44,-52,34,36,-14,-31,-17,-43,-59,78,64,6,61,71,-11,39,53,59,-38,-43,56,116,-50,74,-69,59,-14,97,-79,6,-36,-24,53,-39,27,-29,-67,16,18,-69,-57,-25,-54,-10, 
  /* [12][0][][] */ 10,60,-61,-3,83,-4,-44,29,-81,65,-22,2,-45,2,38,-84,-107,-41,-53,-93,18,-18,9,86,-66,-57,88,-107,79,5,-43,108,-100,-75,-54,11,-12,-82,-17,32,104,30,-116,-45,-29,-88,-46,105,-54,-127,-77,93,25,-5,-89,75,-30,-63,41,56,47,106,-17,31,106,24,-53,106,48,91,35,63,76,108,-30,-14,-45,27,-123,-86,-67,95,38,7,-45,21,45,104,-101,-115,77,39,91,-20,21,66, 
  /* [13][0][][] */ 89,-67,87,84,98,102,75,55,67,-125,12,-23,93,70,51,-32,-109,-62,-67,41,68,-28,119,-53,-64,52,11,11,-69,-64,90,38,49,97,-27,35,-74,-35,4,69,-62,81,-47,12,-53,36,5,-26,40,123,-39,-87,-91,22,97,-88,-67,46,-6,-69,-26,127,-76,45,-60,-57,-93,82,-30,-7,108,4,-76,23,-64,-44,-86,69,76,-55,53,-87,88,36,-80,-105,103,122,-8,-54,-72,67,102,-51,59,-3, 
  /* [14][0][][] */ -63,-100,83,62,66,-28,-16,-127,-81,-52,66,83,-32,-84,-90,-92,-51,-61,0,26,-42,30,-6,60,-123,-70,-33,24,-110,-120,-85,37,91,-29,-35,-10,93,114,20,-112,-6,-112,35,86,65,-111,63,-84,106,42,75,52,80,-21,-15,12,-54,5,39,88,-19,-80,-26,57,-92,-11,73,-114,-86,-103,-101,90,-8,80,47,-77,51,-109,52,17,45,-34,-113,-44,-115,-88,-121,106,109,8,88,-55,84,103,-14,49, 
  /* [15][0][][] */ 24,-20,-26,73,87,-79,65,-100,61,-11,-65,22,96,11,-80,-127,87,14,-93,31,56,19,64,113,63,67,43,94,20,41,56,-94,8,11,-51,-9,-68,116,106,-58,22,108,-55,-25,32,-77,-40,-75,-5,-82,1,33,-101,-90,-44,4,87,31,-58,106,-26,-77,18,76,-24,101,-67,9,-57,-4,43,-67,3,-5,56,-103,-2,46,109,57,-70,61,-94,-72,-111,-24,-104,45,91,75,-102,-52,67,115,-93,103, 
  /* [16][0][][] */ -79,-12,92,-66,51,111,-54,39,47,36,-104,73,-5,-47,-62,-45,113,85,75,75,112,80,-31,47,-30,69,-61,58,-85,34,53,14,-96,77,55,55,-28,49,-64,-64,23,-39,79,91,52,111,108,-9,-51,-87,5,122,-35,112,66,36,6,107,82,20,112,123,33,92,51,17,-36,93,52,107,-17,-4,42,81,73,85,3,105,-109,-1,15,-75,55,29,11,93,115,16,79,12,-12,127,63,-30,-85,32, 
  /* [17][0][][] */ 31,-112,22,77,-44,-115,-72,-99,34,-89,76,39,94,53,-118,40,25,45,95,103,-98,-19,7,-58,18,58,-84,17,97,-63,-40,67,-37,-30,26,0,-55,92,-89,-37,-100,-47,-23,-16,1,4,78,-115,78,96,-19,17,-25,69,92,-78,-122,78,-87,-118,24,-99,66,79,-87,-81,36,-107,-113,-11,100,24,9,-121,-70,57,106,-54,34,-61,2,-23,-81,-100,-118,64,72,-41,13,68,-102,-127,-18,88,5,8, 
  /* [18][0][][] */ -29,93,127,8,7,-91,-52,50,24,122,-54,-41,-6,31,90,-22,30,-12,53,-43,65,3,43,-29,63,-76,-3,95,7,-17,18,22,-1,-7,-57,-50,7,29,51,42,-20,17,-7,32,-44,20,19,10,8,-46,66,1,-53,-6,30,68,-17,16,-39,-58,38,99,-18,8,-42,-73,16,61,59,-28,-39,85,-56,16,-70,-33,7,72,11,-7,-44,1,-22,-53,85,-13,60,31,-78,-51,-68,46,60,1,15,6, 
  /* [19][0][][] */ 16,31,73,35,53,-83,90,87,88,-59,25,-10,-91,30,-55,56,69,-102,127,53,-23,75,-55,10,74,-80,26,-62,-88,-116,-64,42,76,-82,27,3,8,-69,-54,-99,41,-114,-81,8,-85,26,71,-92,-28,35,-40,41,-33,11,4,-12,21,94,-2,-27,50,-51,94,59,-69,-4,-27,-4,-9,50,72,-50,-61,-117,-54,-78,-25,-109,12,108,54,-112,-31,72,-85,-9,7,-6,84,26,-2,60,-33,108,65,-47, 
  /* [20][0][][] */ 9,86,70,90,-85,95,19,56,15,18,-80,5,-8,86,50,-76,-51,-35,-65,-38,24,-44,-75,-60,71,-80,-98,44,12,1,-44,106,96,47,-10,67,35,-21,-4,-100,-74,-35,-87,-95,-12,-62,-65,97,58,-127,-90,32,38,113,46,12,113,59,87,83,113,-68,-53,-51,-19,-60,-48,15,-86,-71,-72,71,-66,-62,29,19,95,68,105,92,82,7,85,-30,58,118,-22,69,21,96,28,53,33,24,6,6, 
  /* [21][0][][] */ 89,62,54,-102,97,-72,71,-3,-3,-83,-66,54,-12,42,-48,-92,-97,-23,19,6,108,-49,58,-74,35,-76,-26,63,19,9,-14,-22,20,19,-73,-122,96,96,-127,-24,-2,10,12,-22,-90,-80,-71,87,-16,-48,-8,93,27,71,-90,33,-29,40,-34,110,69,-84,32,-9,76,34,-37,-60,-96,-15,40,79,24,-18,70,54,-93,-37,62,76,21,98,39,-68,25,-81,52,-66,-88,77,105,-116,-30,-54,70,-36, 
  /* [22][0][][] */ 56,-73,-70,-88,43,-19,103,46,-101,80,-67,-96,103,-109,-96,-87,31,72,-107,-64,72,-68,24,30,94,-5,-103,65,-61,-96,-61,-93,38,55,36,-20,-2,-10,-65,-116,3,-18,-7,85,57,-117,90,-25,-65,-87,-2,-11,-78,-84,-40,31,-13,-40,-52,-34,85,-72,-74,-127,-67,11,-103,-51,100,86,-25,-10,-64,18,57,-111,24,-51,54,77,88,-105,-78,-119,72,80,78,-45,-62,31,-74,37,8,20,-35,84, 
  /* [23][0][][] */ 57,-91,-4,55,100,-106,8,-92,57,-85,89,66,24,-96,12,-23,90,-22,-101,103,92,-70,108,-33,-10,0,84,9,75,63,83,-26,-27,57,24,35,98,1,-123,10,-90,8,19,-95,-71,-72,122,34,83,-90,-76,-32,76,-41,-49,75,-91,1,106,52,-105,-73,-48,16,35,42,-106,-101,67,-6,119,-61,5,-38,-22,-91,55,-11,91,127,-47,-39,19,-80,94,7,122,-13,-81,44,93,13,99,-50,-30,86, 
  /* [24][0][][] */ -76,-36,-100,-82,-60,-81,-45,-121,64,46,86,65,72,75,-29,-96,-66,57,2,-25,105,-70,-48,-18,23,-16,79,55,106,58,-5,-83,48,16,74,20,-45,-54,5,7,-47,-77,60,-7,18,-33,50,75,-39,-21,-46,43,63,65,43,-54,29,78,59,19,121,-21,68,96,-79,103,-37,-60,-91,28,-52,-12,-32,22,106,90,79,-70,-73,-127,-47,-58,-39,-92,15,76,-12,-60,44,-74,25,-89,17,31,-56,15, 
  /* [25][0][][] */ -76,-57,-55,32,85,-68,-82,107,64,-68,-16,10,94,8,-87,0,-48,73,48,-94,80,115,20,-38,29,-26,-89,47,92,-68,74,127,81,-84,58,80,123,-45,11,-9,-66,116,-60,35,113,63,84,59,-101,103,-43,21,63,-11,-22,16,-30,75,-111,90,109,86,38,64,-11,89,11,2,-65,23,12,-100,63,-97,78,45,86,106,30,63,58,54,-31,96,-56,-45,-70,-86,-9,-23,95,21,-121,8,-9,-63, 
  /* [26][0][][] */ 52,-106,-32,-18,-71,11,-16,-18,-98,-127,94,74,-51,-47,2,-7,94,25,-82,-66,11,58,84,6,43,59,6,33,4,26,-84,1,-10,-53,-91,-80,-70,76,-53,97,-92,84,48,24,-72,70,-35,87,-17,22,2,92,-8,-33,-16,-101,85,94,94,22,2,-96,60,-1,111,-21,-58,52,-84,77,79,83,71,-89,-70,-3,44,-106,-92,10,-30,75,74,-53,68,-4,-42,14,-78,101,8,60,-49,91,49,90, 
  /* [27][0][][] */ 14,25,-50,-96,-60,-52,-65,-6,47,122,39,-91,-22,56,83,-8,67,-12,74,-66,-91,14,-21,-23,-44,50,-100,16,72,48,-20,-2,71,70,-89,-47,-80,-59,-100,89,-88,21,38,20,106,30,70,107,96,80,59,-70,-80,-81,1,-29,99,-18,-110,-71,-57,-52,-32,80,33,-42,-105,106,70,18,-127,6,61,-39,-4,-75,46,-58,88,125,86,-20,109,-47,-66,-78,-27,32,-47,1,-27,-29,54,20,86,62, 
  /* [28][0][][] */ 103,30,127,69,-97,-4,-49,-19,-13,3,65,56,-38,-53,59,91,103,98,-23,24,-15,54,-52,-24,-62,66,-54,4,-59,-114,16,-20,-84,26,76,79,52,-67,25,30,98,49,-57,81,-48,-1,21,59,34,-74,-38,-46,-41,20,71,55,69,-13,52,65,-19,-5,-86,-17,69,65,22,72,-48,30,-70,-21,68,67,17,-38,-122,-12,-47,62,-55,-68,97,-32,70,-65,67,-75,-76,-41,-5,-69,-26,60,-95,-45, 
  /* [29][0][][] */ 74,72,81,-37,-98,35,-112,27,114,24,-84,-101,113,-104,-34,-39,-93,111,30,-76,-77,-22,70,15,-12,10,-39,-10,-106,-13,118,3,51,13,-71,-32,2,113,12,101,56,114,-33,97,13,113,-48,-18,24,-20,68,-96,79,-93,120,52,-86,56,-62,123,-127,112,-100,-57,-61,-61,67,97,106,-78,39,-73,118,98,72,42,113,-48,-23,60,-3,-82,-9,-78,74,126,51,79,-38,106,73,83,-105,23,-1,69, 
  /* [30][0][][] */ 23,-76,-71,33,-103,21,-73,-20,115,-22,-7,-45,-105,15,53,11,-10,31,96,-111,41,-111,-123,8,-121,19,-77,118,-15,-113,-101,0,-89,-80,-125,-62,11,-25,-8,22,86,-86,-18,96,101,-50,100,56,-79,78,18,-110,98,-58,-18,99,-85,-58,-86,-59,-109,-9,-81,-30,-114,-96,-104,92,-65,111,49,-40,-93,103,35,-95,-62,-79,-84,-66,25,27,-110,-24,-118,23,-114,110,-41,-127,79,56,-37,-8,7,-76, 
  /* [31][0][][] */ 105,-32,87,116,63,65,-21,-28,-4,67,-31,-76,102,-89,6,125,-17,-53,52,26,55,73,21,115,93,-75,49,62,-60,-66,76,106,15,42,-72,42,120,0,15,-75,76,-30,24,81,43,-15,-2,49,73,-5,102,-23,-71,-38,-30,30,-98,71,27,125,-55,35,74,-49,89,110,7,-44,71,-53,-66,19,-47,0,19,49,-59,13,64,127,-51,-19,42,70,76,105,-44,18,15,-17,-65,-44,9,94,-5,21, 
};
const TfArray<4, int> tensor_dimension5 = { 4, { 32,1,1,96 } };
const TfArray<32, float> quant5_scale = { 32, { 0.0018688144627958536, 0.0018174637807533145, 0.0017715462017804384, 0.0017771234270185232, 0.0018356690416112542, 0.0020134623628109694, 0.0018599345348775387, 0.0018988240044564009, 0.001919777481816709, 0.0021175539586693048, 0.0018195237498730421, 0.0024534964468330145, 0.0018649327103048563, 0.0018921769224107265, 0.0018630367703735828, 0.0018907010089606047, 0.0018414658261463046, 0.0018665107199922204, 0.0027129705995321274, 0.0018829598557204008, 0.0019436086295172572, 0.0019659760873764753, 0.0020010578446090221, 0.0019361119484528899, 0.002090048510581255, 0.001845387858338654, 0.0020106893498450518, 0.0018886163597926497, 0.0023281252942979336, 0.0017685472266748548, 0.0017479173839092255, 0.0022496655583381653, } };
const TfLiteAffineQuantization quant5 = { (TfLiteFloatArray*)&quant5_scale, (TfLiteIntArray*)&g0::quant4_zero, 0 };
const MODEL_SECTION(EI_MODEL_SECTION) ALIGN(16) int32_t tensor_data6[96] = { -1904, 2360, 7317, 2128, -2466, -2983, 13274, 1765, 2145, -1119, 7788, -139, -8538, 1772, 13253, 4406, 12074, 4008, -3343, -4617, 3473, 23465, 16516, 13115, 883, 734, 2937, 2158, 1629, -3747, 5907, -2143, -178, 3583, 35, 831, 9170, 4352, -1232, 4106, 7086, 5493, 4034, 8634, 3365, 3566, 1539, 6219, 3347, -4941, -4358, 317, -222, -972, 1503, -21, 141, -675, -3111, 7110, -727, 1035, -990, -1338, -2454, 5476, 18074, 1657, -2280, 668, 1390, 1973, 1761, -1169, 471, 9196, -427, 14930, 11277, -685, 5937, 1496, -398, 1036, 12586, 6683, 3003, 997, 4628, 2705, -467, -6582, 577, -1589, -1393, -1887, };
const TfArray<1, int> tensor_dimension6 = { 1, { 96 } };
const TfArray<96, float> quant6_scale = { 96, { 0.00031239187228493392, 0.0006688513676635921, 0.00033126314519904554, 0.00042218717862851918, 0.00041365364450030029, 0.00049563992070034146, 0.00024887060862965882, 0.00041491066804155707, 0.00028723187278956175, 0.00052912882529199123, 0.0002516317181289196, 0.00041662619332782924, 0.00030159964808262885, 0.0015442435396835208, 0.00023388912086375058, 0.00027049222262576222, 0.000155065325088799, 0.0003622561926022172, 0.00057789689162746072, 0.00036302520311437547, 0.00017705140635371208, 0.00011667673970805481, 0.00018651502614375204, 0.00012702801905106753, 0.00022293999791145325, 0.00067165785003453493, 0.0010069090640172362, 0.00050653429934754968, 0.00029800037737004459, 0.00051472621271386743, 0.00025268990430049598, 0.00035838223993778229, 0.00028491162811405957, 0.00032306532375514507, 0.00046817888505756855, 0.00030295283067971468, 0.00020874080655630678, 0.000250660115852952, 0.00045421830145642161, 0.00043174816528335214, 0.00017915249918587506, 0.0004748667124658823, 0.00037800596328452229, 0.00027048465562984347, 0.00056735856924206018, 0.00028416930581443012, 0.00033183742198161781, 0.00034239873639307916, 0.00041289065848104656, 0.00026876607444137335, 0.00036683373036794364, 0.00024820971884764731, 0.0006774523644708097, 0.00033531044027768075, 0.00052123231580480933, 0.00051697937306016684, 0.00066504528513178229, 0.00036726496182382107, 0.00049155630404129624, 0.00026268712827004492, 0.0010112561285495758, 0.00067389971809461713, 0.00026817532489076257, 0.00057734479196369648, 0.00076949712820351124, 0.00035891766310669482, 0.00012153053830843419, 0.00024157365260180086, 0.00051295151934027672, 0.0005142778973095119, 0.00028654324705712497, 0.00024265641695819795, 0.00078803987707942724, 0.00035250000655651093, 0.00038294473779387772, 0.00023577855608891696, 0.00032315016142092645, 0.00012553109263535589, 0.00016185318236239254, 0.000255531573202461, 0.00024658831534907222, 0.00021778143127448857, 0.00024137840955518186, 0.00022211245959624648, 0.00014844993711449206, 0.0003549021203070879, 0.00077452743425965309, 0.00027738706558011472, 0.00015356055519077927, 0.00076324783731251955, 0.00024493527598679066, 0.00030047737527638674, 0.000332648865878582, 0.00065904692746698856, 0.00045402444084174931, 0.00021465464669745415, } };
const TfArray<96, int> quant6_zero = { 96, { 0,0,0,0,0,0,0,0,0,0,0,0,0,0,0,0,0,0,0,0,0,0,0,0,0,0,0,0,0,0,0,0,0,0,0,0,0,0,0,0,0,0,0,0,0,0,0,0,0,0,0,0,0,0,0,0,0,0,0,0,0,0,0,0,0,0,0,0,0,0,0,0,0,0,0,0,0,0,0,0,0,0,0,0,0,0,0,0,0,0,0,0,0,0,0,0 } };
const TfLiteAffineQuantization quant6 = { (TfLiteFloatArray*)&quant6_scale, (TfLiteIntArray*)&quant6_zero, 0 };
const MODEL_SECTION(EI_MODEL_SECTION) ALIGN(16) int8_t tensor_data7[96*1*1*16] = { 
  /* [0][0][][] */ -22,91,-5,-127,-38,-35,-31,-52,-27,-5,-4,72,17,-47,-7,47, 
  /* [1][0][][] */ -41,17,-49,-7,-20,-34,15,-77,56,50,-56,19,1,5,21,-127, 
  /* [2][0][][] */ 4,20,-44,62,48,37,-43,-57,127,-41,6,12,-20,100,-86,18, 
  /* [3][0][][] */ 49,-69,9,-95,-1,-24,-2,-2,127,-2,78,80,-21,74,19,104, 
  /* [4][0][][] */ -64,63,10,38,3,-33,22,70,-26,-18,-4,-58,-127,-14,11,52, 
  /* [5][0][][] */ 3,59,104,-3,22,68,-84,68,-59,71,-39,-39,43,-43,-127,20, 
  /* [6][0][][] */ 30,-49,127,-112,57,-6,-60,82,-66,-93,29,-40,3,83,-41,55, 
  /* [7][0][][] */ 32,115,-13,-52,95,13,-9,-45,127,93,-43,28,27,-12,53,28, 
  /* [8][0][][] */ 11,-83,11,-96,34,-62,14,-65,19,55,69,-18,25,127,73,70, 
  /* [9][0][][] */ 11,-25,-6,127,39,-17,44,-64,-65,105,27,-25,-18,-59,2,-15, 
  /* [10][0][][] */ -16,30,-65,-127,21,14,6,52,28,-41,17,-43,-24,-39,20,35, 
  /* [11][0][][] */ -11,15,32,-27,72,-38,67,-51,-91,25,-15,22,9,127,-65,-31, 
  /* [12][0][][] */ 68,-14,-106,4,41,-50,14,18,26,64,-55,-33,-30,127,-18,22, 
  /* [13][0][][] */ -15,7,-32,11,9,-127,2,8,8,-4,8,0,7,-10,15,9, 
  /* [14][0][][] */ 26,-32,87,-22,46,16,-127,-111,-3,-34,48,40,4,-58,-24,-51, 
  /* [15][0][][] */ -65,27,-16,-38,-20,-4,127,50,-40,39,63,-21,-3,47,74,-12, 
  /* [16][0][][] */ 34,76,127,102,6,24,109,66,-99,9,-73,-8,-1,15,21,-95, 
  /* [17][0][][] */ -34,-99,-9,27,-62,-26,-54,21,-127,-35,8,-51,2,38,53,-32, 
  /* [18][0][][] */ 16,29,4,68,33,8,16,-15,77,51,-33,-17,7,127,55,15, 
  /* [19][0][][] */ 26,-51,42,8,100,1,-90,-47,-124,-99,-68,-127,-46,-29,6,-34, 
  /* [20][0][][] */ 69,-21,-48,-47,28,-127,5,40,-70,21,-107,-38,38,-5,12,19, 
  /* [21][0][][] */ 109,-10,51,18,-19,33,26,81,9,-75,93,68,-31,127,47,41, 
  /* [22][0][][] */ -14,44,-42,127,-42,-8,102,88,-26,21,-32,21,15,7,34,19, 
  /* [23][0][][] */ 70,-8,92,-120,62,-41,-4,65,0,7,-30,-62,8,-11,-127,52, 
  /* [24][0][][] */ -127,43,17,-16,9,108,21,-26,-1,21,96,-5,-86,23,58,-37, 
  /* [25][0][][] */ 29,21,14,17,17,3,67,-43,-11,-127,-23,-27,-8,-24,18,26, 
  /* [26][0][][] */ -40,-11,2,11,-46,-5,-42,-26,-96,-35,1,-32,7,127,-38,52, 
  /* [27][0][][] */ -8,32,12,61,42,-34,-22,-39,52,4,-30,-5,9,127,-16,14, 
  /* [28][0][][] */ 12,75,53,63,127,-1,32,36,-78,-10,-41,-25,11,86,41,-35, 
  /* [29][0][][] */ -2,-7,17,1,17,-15,-3,42,-41,-27,-17,-127,11,-12,-8,24, 
  /* [30][0][][] */ -21,75,-54,78,-44,-11,47,-127,-35,59,-4,6,49,38,82,75, 
  /* [31][0][][] */ -42,-8,-4,-60,2,5,-50,-111,20,80,-10,-127,-35,-33,14,9, 
  /* [32][0][][] */ -127,-72,3,50,60,24,-24,9,-16,-47,-117,26,81,-4,47,72, 
  /* [33][0][][] */ -8,-37,-34,-14,-83,-18,-90,1,56,12,0,-59,40,-127,121,38, 
  /* [34][0][][] */ 48,-11,60,21,45,12,-44,77,-81,-47,60,13,18,-9,-16,127, 
  /* [35][0][][] */ -35,70,-99,15,-9,-24,46,-117,92,103,-87,-5,3,-14,94,-127, 
  /* [36][0][][] */ -19,45,21,110,34,12,127,19,-29,35,-43,-19,-14,-7,-89,-59, 
  /* [37][0][][] */ 9,-19,31,-88,9,-18,-60,-51,-74,-20,-7,-11,15,-127,47,-34, 
  /* [38][0][][] */ 41,85,-1,-48,127,-8,16,-47,109,62,-18,-7,14,-34,51,17, 
  /* [39][0][][] */ -30,73,-16,-127,-9,12,-38,43,40,-78,-32,-34,10,82,59,42, 
  /* [40][0][][] */ 5,-28,28,-101,-3,-26,-5,-44,-108,-3,-6,-18,-8,-127,60,-65, 
  /* [41][0][][] */ 0,-17,-47,-22,9,-40,22,-12,-36,11,-51,-14,-127,6,26,40, 
  /* [42][0][][] */ 127,98,-32,-18,-77,-46,-15,-47,-3,13,80,-64,-59,58,124,-109, 
  /* [43][0][][] */ -5,99,-86,14,38,-2,127,-20,58,81,-19,18,19,-108,-49,-48, 
  /* [44][0][][] */ -13,-1,-1,-36,65,8,-69,-127,-13,-9,19,-3,1,-25,65,-60, 
  /* [45][0][][] */ -2,44,-127,-11,18,-51,44,-80,24,40,20,-54,20,-6,70,-29, 
  /* [46][0][][] */ 9,6,-28,-79,-3,18,30,-24,-127,-24,5,6,-16,-118,77,-30, 
  /* [47][0][][] */ 12,48,20,-23,127,-22,-25,18,-63,34,-6,13,13,-4,115,-20, 
  /* [48][0][][] */ -127,-72,-17,26,55,11,-2,-28,5,-14,-94,48,61,5,68,42, 
  /* [49][0][][] */ 35,27,88,93,127,10,61,43,-122,-48,-37,-85,-1,108,40,-61, 
  /* [50][0][][] */ 29,-21,-93,0,24,-127,-36,-19,-15,-19,-8,-10,18,-4,-4,-21, 
  /* [51][0][][] */ 1,29,30,0,20,-10,1,35,-127,43,-4,-120,15,-94,-12,94, 
  /* [52][0][][] */ 10,48,-2,54,24,7,21,29,71,86,-23,-46,30,127,64,17, 
  /* [53][0][][] */ 6,-55,-9,-17,-87,-15,-83,14,48,22,4,-61,36,-127,103,27, 
  /* [54][0][][] */ 65,-16,-46,23,127,96,-104,-40,-67,-4,-19,-65,-5,-47,-12,-48, 
  /* [55][0][][] */ 46,-6,-6,4,24,-31,-68,-127,-25,-60,-37,24,-7,-28,25,-6, 
  /* [56][0][][] */ -24,9,29,-28,3,-34,-106,69,-14,127,-16,-22,35,9,-7,10, 
  /* [57][0][][] */ -6,35,-52,-14,-40,-45,127,101,-42,19,-22,-21,26,33,126,-9, 
  /* [58][0][][] */ 32,37,-127,22,61,91,-19,41,-100,-34,5,-14,-36,10,17,-4, 
  /* [59][0][][] */ -106,66,127,12,-83,-80,119,126,20,0,27,-18,24,3,60,2, 
  /* [60][0][][] */ 0,6,-47,-1,25,-127,-20,15,-23,-17,-26,-39,22,-5,-5,-3, 
  /* [61][0][][] */ 26,-21,32,127,70,22,28,8,-95,-3,17,37,-10,18,30,-42, 
  /* [62][0][][] */ -55,127,25,-62,-26,-23,-81,77,-30,-81,-114,-75,1,-88,-57,-30, 
  /* [63][0][][] */ -39,38,-39,127,-70,15,-53,-22,-68,-24,-26,-51,28,60,54,44, 
  /* [64][0][][] */ 6,3,3,50,22,20,-4,64,33,6,-17,-42,-22,-127,43,-17, 
  /* [65][0][][] */ -21,-50,4,-127,39,-31,78,-28,-6,50,11,-99,-16,-4,14,-40, 
  /* [66][0][][] */ 49,-26,87,-12,-15,14,-18,102,31,-58,66,68,-2,127,-8,56, 
  /* [67][0][][] */ 2,61,-25,-127,-16,3,-57,40,94,-100,-25,4,29,94,88,31, 
  /* [68][0][][] */ -35,49,127,23,13,23,4,-2,-32,-14,-1,-35,2,-22,113,-45, 
  /* [69][0][][] */ 127,82,-14,1,-88,-38,-25,-23,-4,9,74,-57,-61,70,74,-95, 
  /* [70][0][][] */ 40,17,-64,-14,-22,27,64,127,-43,84,-39,-7,7,58,-13,33, 
  /* [71][0][][] */ 0,-6,-3,-3,1,-93,-6,17,-33,16,-81,5,-127,-5,38,47, 
  /* [72][0][][] */ 17,22,-127,11,16,6,29,105,-46,-32,10,-4,27,16,3,11, 
  /* [73][0][][] */ -43,21,42,-1,53,-43,-71,-127,13,-84,30,-24,18,-52,35,-9, 
  /* [74][0][][] */ -13,21,57,113,24,-24,-107,80,-83,3,-65,37,39,-127,34,-88, 
  /* [75][0][][] */ -18,23,-42,-5,31,-25,-2,-19,120,18,-35,-18,27,127,-68,8, 
  /* [76][0][][] */ -2,-12,1,18,2,-15,-16,57,17,-25,-16,-127,-1,-11,6,14, 
  /* [77][0][][] */ -3,42,-22,127,-37,13,93,113,1,38,-21,25,-10,-21,-20,-5, 
  /* [78][0][][] */ 2,25,38,-127,68,-45,-49,24,8,-46,-14,-62,38,114,7,34, 
  /* [79][0][][] */ -10,-98,-82,-67,-94,-17,13,-75,127,5,36,70,26,40,47,-61, 
  /* [80][0][][] */ -22,18,88,-69,42,-35,23,-62,-72,36,-58,-127,28,100,66,-23, 
  /* [81][0][][] */ -44,40,-117,19,66,-127,-20,51,-12,-46,53,-11,29,-3,5,4, 
  /* [82][0][][] */ 127,-3,-12,22,12,-99,-10,20,-10,-5,-94,3,93,11,-3,17, 
  /* [83][0][][] */ -28,83,-127,-63,-35,-7,56,-112,63,59,-51,-124,6,57,57,86, 
  /* [84][0][][] */ -32,15,72,-49,-17,-35,47,-127,-38,40,2,-35,36,25,46,-1, 
  /* [85][0][][] */ -77,120,28,-127,-68,-36,-31,-2,-57,-6,-74,14,9,-11,-97,-21, 
  /* [86][0][][] */ -1,4,-31,13,-19,-21,127,25,-4,-27,-4,3,-1,27,75,-14, 
  /* [87][0][][] */ -24,-34,-8,-109,5,-28,62,-17,-2,24,-3,-127,-22,5,18,-39, 
  /* [88][0][][] */ 80,-1,69,-22,49,-111,-21,29,-70,30,-127,-91,44,42,69,0, 
  /* [89][0][][] */ 14,-23,-35,-54,15,-12,-38,-17,-37,14,41,-55,127,-9,18,-51, 
  /* [90][0][][] */ -2,-61,51,-62,64,-10,-72,93,63,-87,-43,-22,-9,116,7,-127, 
  /* [91][0][][] */ -36,-38,-41,-53,-9,-23,-24,-100,23,63,-1,-127,-26,-11,13,26, 
  /* [92][0][][] */ -28,27,34,20,0,-127,20,3,-2,-23,3,-20,-1,-25,26,8, 
  /* [93][0][][] */ 38,-19,127,-15,-63,56,22,-32,-15,29,-67,-10,-11,-8,33,2, 
  /* [94][0][][] */ 27,10,-33,-18,30,-3,-6,-4,-45,-15,18,-80,127,-12,47,-41, 
  /* [95][0][][] */ 127,104,-29,17,-115,-19,-63,-15,-32,-20,101,-66,-55,16,105,-73, 
};
const TfArray<4, int> tensor_dimension7 = { 4, { 96,1,1,16 } };
const TfArray<96, float> quant7_scale = { 96, { 0.00069602433359250426, 0.0014902334660291672, 0.00073807040462270379, 0.00094065361190587282, 0.00092164048692211509, 0.0011043099220842123, 0.00055449584033340216, 0.00092444120673462749, 0.00063996663084253669, 0.0011789248092100024, 0.00056064774980768561, 0.00092826347099617124, 0.00067197869066148996, 0.0034406499471515417, 0.0005211163661442697, 0.00060266983928158879, 0.0003454931138549, 0.00080712448107078671, 0.001287582446821034, 0.00080883782356977463, 0.00039447916788049042, 0.00025996146723628044, 0.00041556457290425897, 0.00028302462305873632, 0.00049672118620947003, 0.0014964864822104573, 0.0022434424608945847, 0.0011285830987617373, 0.00066395936300978065, 0.0011468350421637297, 0.00056300545111298561, 0.00079849309986457229, 0.00063479697564616799, 0.00071980530628934503, 0.0010431254049763083, 0.00067499367287382483, 0.00046508468221873045, 0.00055848294869065285, 0.0010120205115526915, 0.00096195598598569632, 0.00039916048990562558, 0.0010580262169241905, 0.00084221572615206242, 0.0006026530172675848, 0.0012641025241464376, 0.00063314306316897273, 0.00073934992542490363, 0.00076288107084110379, 0.00091994053218513727, 0.00059882388450205326, 0.00081732345279306173, 0.00055302336113527417, 0.0015093969414010644, 0.00074708799365907907, 0.0011613309616222978, 0.0011518552200868726, 0.0014817533083260059, 0.00081828422844409943, 0.0010952113661915064, 0.00058527971850708127, 0.002253127982839942, 0.0015014813980087638, 0.00059750769287347794, 0.0012863522861152887, 0.0017144770827144384, 0.0007996860658749938, 0.00027077595586888492, 0.00053823785856366158, 0.0011428809957578778, 0.0011458361987024546, 0.0006384323351085186, 0.00054065033327788115, 0.001755791250616312, 0.00078538717934861779, 0.00085321953520178795, 0.00052532611880451441, 0.00071999430656433105, 0.00027968938229605556, 0.00036061677383258939, 0.00056933681480586529, 0.00054941076086834073, 0.00048522764700464904, 0.00053780287271365523, 0.00049487740034237504, 0.00033075371175073087, 0.00079073919914662838, 0.0017256848514080048, 0.00061803188873454928, 0.00034214041079394519, 0.0017005533445626497, 0.00054572772933170199, 0.00066947826417163014, 0.00074115791358053684, 0.001468388712964952, 0.0010115886107087135, 0.00047826100490055978, } };
const TfLiteAffineQuantization quant7 = { (TfLiteFloatArray*)&quant7_scale, (TfLiteIntArray*)&g0::quant6_zero, 0 };
const MODEL_SECTION(EI_MODEL_SECTION) ALIGN(16) int32_t tensor_data8[16] = { -2092, 23315, -30923, 1956, -8501, 13171, 42945, -60130, -4926, 14443, 28154, 15119, -12614, 22319, -766, 12515, };
const TfArray<1, int> tensor_dimension8 = { 1, { 16 } };
const TfArray<16, float> quant8_scale = { 16, { 0.0011303910287097096, 0.00045100829447619617, 0.00023631667136214674, 0.0002140934084309265, 0.00041045877151191235, 0.00047370727406814694, 0.00033465120941400528, 0.00031157297780737281, 0.00033219103352166712, 0.00025030187680386007, 0.00080437125870957971, 0.00052858993876725435, 0.00042198030860163271, 0.00024670120910741389, 0.00055207207333296537, 0.00051741377683356404, } };
const TfArray<16, int> quant8_zero = { 16, { 0,0,0,0,0,0,0,0,0,0,0,0,0,0,0,0 } };
const TfLiteAffineQuantization quant8 = { (TfLiteFloatArray*)&quant8_scale, (TfLiteIntArray*)&quant8_zero, 0 };
const MODEL_SECTION(EI_MODEL_SECTION) ALIGN(16) int8_t tensor_data9[16*1*1*96] = { 
  /* [0][0][][] */ -21,-22,-7,-34,12,-13,-36,-1,11,7,-8,6,-6,-11,-26,12,0,6,-8,-11,0,-27,2,2,7,10,3,127,40,-29,38,-2,-2,12,2,-4,-13,5,-36,-7,-4,16,5,33,9,8,11,1,29,3,-6,16,22,-25,-16,71,-7,10,-30,-28,-3,24,8,-20,-42,-55,-20,41,10,7,11,-18,5,-33,11,-20,-34,24,3,5,-1,-15,14,24,-21,-10,-1,-76,11,-4,6,-12,47,-31,-37,-20, 
  /* [1][0][][] */ 39,-91,-80,-56,127,-25,58,41,-24,-90,-51,-18,16,-30,-53,45,-57,18,43,55,6,36,-9,-63,1,2,-13,-79,42,-22,-55,14,-31,29,8,-8,1,-4,6,10,-32,54,-38,-15,-54,81,13,5,21,-76,15,-37,-13,36,32,1,-58,-7,-37,-31,32,-6,12,-31,-80,113,-7,-22,-18,-27,-26,34,68,-92,-10,8,35,-37,40,24,12,-14,10,22,-72,57,-11,26,42,-21,6,-10,34,1,26,98, 
  /* [2][0][][] */ -13,92,-70,-5,77,100,33,85,-2,-127,14,-9,4,5,37,12,10,-31,-48,54,46,-21,81,34,64,26,-8,-29,23,-9,59,-62,48,31,-30,53,-121,-86,30,46,12,-68,24,-20,13,-36,13,78,-21,39,-20,-20,84,7,5,81,47,0,26,-1,20,14,2,-33,18,-20,-26,-6,-55,-8,-3,-51,-74,-88,-11,69,72,44,21,-17,25,-63,32,-34,-6,8,2,41,-42,19,-2,5,-8,-40,-64,19, 
  /* [3][0][][] */ 45,21,114,-13,40,-27,32,-5,-5,-78,21,-43,13,46,46,94,17,-6,28,9,127,-21,28,31,39,-18,-9,36,33,30,-18,80,-100,19,26,-2,-22,-28,-7,56,-59,-32,71,31,29,17,-46,-74,-54,-35,-37,65,-6,-116,-26,39,-116,82,19,42,21,100,-29,-45,34,58,-20,-41,29,-33,-5,-56,42,-32,71,-20,-33,-9,60,36,0,-70,15,-15,-60,-4,15,77,23,23,20,15,33,82,46,-38, 
  /* [4][0][][] */ 15,-1,35,-13,127,51,-7,-17,-42,-51,-25,-34,-55,19,-8,44,29,-79,-37,80,-19,15,35,-20,3,-20,10,-40,10,-13,59,-29,86,17,-32,10,44,12,12,16,-17,-15,-21,-34,0,-50,-24,3,42,17,-28,20,-11,-47,22,-24,14,-13,-38,29,0,67,50,30,48,50,-34,2,-42,-2,50,61,12,-73,-44,-28,15,51,94,-46,-2,-37,-1,-14,-76,7,39,70,-39,28,5,-43,8,25,26,-31, 
  /* [5][0][][] */ -15,-11,-13,0,6,-29,59,-18,-22,-34,-9,13,0,30,3,18,-3,-3,9,-12,28,18,-45,74,13,-19,19,-74,12,29,18,41,-2,20,4,-57,26,12,-14,15,11,-7,23,1,5,-14,7,-21,-12,-10,15,-10,3,-28,-16,-29,-19,12,-37,22,57,7,-8,35,-10,53,0,76,16,72,7,23,9,13,13,65,-54,-5,14,0,8,-6,-8,16,-19,-2,-6,127,0,34,-3,-25,6,13,-61,6, 
  /* [6][0][][] */ 29,-111,-4,-52,-29,-3,52,26,-2,6,-23,-79,-37,4,-34,54,19,-2,-3,7,-66,45,16,-2,-47,-7,0,-15,4,18,54,-14,51,21,63,-23,-8,-13,19,-111,-27,121,4,-18,32,-37,-32,15,-26,31,-34,87,-10,-76,-36,-21,-12,-56,-13,16,1,66,50,-79,32,-25,0,-21,4,-15,127,16,-25,20,-5,22,-111,-7,33,2,45,55,1,12,-63,11,61,36,19,31,53,-76,1,-22,-40,-31, 
  /* [7][0][][] */ 34,127,15,23,110,59,26,-38,-35,-71,24,-21,-19,17,28,37,6,-32,14,58,42,-63,52,7,-17,41,7,-1,14,-13,15,8,44,-30,-42,27,15,18,5,89,-75,44,9,18,-43,-31,13,-12,-44,-38,36,22,7,-25,-36,46,83,16,-8,3,-11,-45,-2,-4,-49,76,-6,-106,-33,-38,-10,82,-15,-26,-2,4,93,41,27,-16,-74,-50,-4,-3,10,79,-10,-36,-46,23,-38,-23,-52,-30,33,11, 
  /* [8][0][][] */ -26,9,81,16,-122,-34,69,-15,43,127,77,19,-24,39,21,-5,-36,-2,14,-27,-41,11,-126,80,26,-71,69,-9,8,12,-6,68,62,3,1,-24,-21,-27,0,31,38,-49,46,15,-23,4,53,-1,-102,33,14,18,-61,-55,-24,68,-12,-71,-102,-30,7,-28,-43,-3,11,81,-25,-42,54,-9,-33,-38,25,59,57,-12,-41,-16,-6,6,-77,10,-5,-16,19,7,57,81,23,-37,47,39,3,25,35,14, 
  /* [9][0][][] */ -1,-100,6,21,93,85,-3,-15,33,-10,104,84,-30,26,96,-110,4,-44,-12,3,-43,-55,20,3,-37,-14,-2,30,-41,5,7,-1,14,28,-101,23,2,20,-31,72,37,-93,-13,74,30,-2,-74,-36,38,31,-25,-98,50,20,-6,-33,-18,64,-34,-6,31,-40,-53,127,-81,-14,-7,-9,12,27,-40,-86,40,-5,-9,21,42,-43,22,-12,5,-29,22,5,-3,-76,28,7,-2,-44,-49,24,-61,16,-2,-30, 
  /* [10][0][][] */ -55,-21,-25,-46,-30,-10,66,-14,32,20,30,34,24,-3,-4,1,-7,19,-28,-33,-9,35,10,21,-6,-18,14,-104,31,-35,48,-24,1,27,-3,-18,-6,16,2,-7,28,-22,25,-41,17,-9,25,14,1,40,-22,-6,-23,-26,-16,-47,-1,13,-15,-24,22,11,-6,13,-33,83,-17,-25,19,-31,-5,-21,-22,-6,32,47,-30,45,-11,4,1,1,-4,20,-17,-21,-1,127,5,10,15,-1,25,-34,34,-42, 
  /* [11][0][][] */ -116,41,21,-4,21,-65,6,-2,-46,16,4,29,24,44,-30,-8,46,-12,-77,-87,30,3,-18,15,92,-20,84,17,-34,20,-54,28,-7,39,-9,-17,2,-3,23,26,5,-20,0,13,108,18,86,23,55,53,-14,43,10,-76,34,11,-96,-31,-47,-48,-20,-14,-19,20,2,-37,12,13,44,14,7,19,-43,5,23,-5,-48,93,-125,51,-28,-20,-64,-103,127,4,44,14,0,49,-37,-73,-31,68,-29,-4, 
  /* [12][0][][] */ -4,4,-36,0,60,32,-8,-24,-12,15,27,-1,-3,-15,26,-26,-31,-9,13,-23,-6,-17,-46,37,-8,34,-30,89,-30,36,-36,7,-8,20,2,34,-16,-14,12,25,-4,-33,-2,1,-10,18,23,15,-4,1,-1,-32,-34,5,7,-19,-4,-23,25,14,-19,-31,-4,41,44,-80,13,61,-31,-127,-3,44,-3,2,-13,86,22,-12,-10,2,-27,19,-27,2,37,-27,-4,-69,-7,-2,-3,20,-47,51,-4,32, 
  /* [13][0][][] */ -66,40,-26,-12,-69,-11,-11,24,-48,-28,28,17,67,6,-16,5,-25,37,-50,-4,2,-6,35,-68,56,21,-7,-1,15,-23,-30,-72,-86,-23,3,5,-15,6,20,-10,-32,92,-2,12,51,13,-17,6,50,-17,47,70,67,-57,56,-31,-24,53,48,17,10,20,-14,8,-20,-8,-4,10,11,6,6,-127,33,-33,-62,8,53,27,-39,-39,58,-10,-17,-36,27,-31,99,-17,-23,6,-32,26,33,-39,-16,-24, 
  /* [14][0][][] */ -22,-2,-34,-56,40,-7,-13,29,-97,9,9,8,-24,-65,-75,-16,-90,-7,67,19,17,9,13,-107,-35,16,-49,-20,21,-25,-9,-36,-63,-21,22,7,-17,-7,12,2,-3,101,-69,-16,-54,16,0,12,127,-37,23,-4,34,54,-117,10,-31,41,-103,20,12,35,49,26,-10,38,-7,11,-49,15,52,40,51,-8,-10,19,47,-78,-23,-88,20,-18,-1,50,15,-60,-29,15,-29,33,31,38,20,26,20,-24, 
  /* [15][0][][] */ -21,-96,-21,-24,2,7,-4,-53,-28,8,-14,-29,36,-14,53,-6,-94,7,-19,19,-20,-11,-66,-43,-11,23,-9,16,-16,-10,71,-90,-10,14,23,18,-14,22,-90,-4,18,-63,-6,26,-43,-39,46,37,45,20,-9,-127,-4,51,-5,39,42,-3,-17,46,5,-3,52,-10,-4,-12,0,-6,-25,29,5,42,-32,4,-16,-36,-8,-9,-3,6,-21,39,-6,80,0,-40,-35,-52,-43,49,29,81,-39,-5,-2,-14, 
};
const TfArray<4, int> tensor_dimension9 = { 4, { 16,1,1,96 } };
const TfArray<16, float> quant9_scale = { 16, { 0.048041615635156631, 0.019167851656675339, 0.010043458081781864, 0.0090989693999290466, 0.017444496974349022, 0.020132558420300484, 0.014222675934433937, 0.013241850771009922, 0.014118118211627007, 0.010637829080224037, 0.034185778349637985, 0.022465072572231293, 0.017934162169694901, 0.010484800674021244, 0.023463062942028046, 0.021990085020661354, } };
const TfLiteAffineQuantization quant9 = { (TfLiteFloatArray*)&quant9_scale, (TfLiteIntArray*)&g0::quant8_zero, 0 };
const MODEL_SECTION(EI_MODEL_SECTION) ALIGN(16) int32_t tensor_data10[96] = { 17464, 55424, 921, -636, 15564, -3324, -57, -865, 6599, 10902, -3083, 397, 854, 3466, 5279, -9661, -3963, -278, -1434, 12151, -11281, 14712, -3717, 6092, 19532, 38, -4845, 19169, 14586, -19032, 2381, 21711, 24264, -11949, 2398, 12, -487, 77, 4687, -7478, -5153, -973, -7591, -49, 30022, -1704, 11771, -1857, -15050, 501, 307, 86, -2296, 16069, -2992, 17376, 19504, 3, 36585, -1009, -9877, -902, 767, -355, -3164, 12222, -2064, -7762, -3660, 3482, -108, -4259, 824, 237, -2035, -5248, -1032, -1384, 50213, -8509, -6408, -11777, -349, -328, 58537, -14829, -12950, -27758, -8768, 7993, -1673, 35412, 964, -3467, -3209, 145, };
const TfArray<96, float> quant10_scale = { 96, { 0.00013992833555676043, 0.00010195805225521326, 0.00011989718041149899, 0.00022585957776755095, 0.00023311930999625474, 0.00022603613615501672, 7.2610338975209743e-05, 9.0893197921104729e-05, 0.00025745062157511711, 0.00022536532196681947, 0.00028291196213103831, 0.00012088614312233403, 0.00028668894083239138, 0.00022148163407109678, 0.00044875251478515565, 0.00014397157065104693, 0.00021860725246369839, 0.00020199615391902626, 0.00017380653298459947, 9.7781310614664108e-05, 6.7807639425154775e-05, 4.3794592784252018e-05, 0.00013754221436101943, 0.00011445091513451189, 7.990103040356189e-05, 0.00010627663141349331, 0.00017213000683113933, 0.00015779606474097818, 7.8761746408417821e-05, 0.00047972725587897003, 0.0003694527258630842, 0.00023681945458520204, 0.00011315057781757787, 0.00011875171912834048, 0.00025426337379030883, 0.00046157350880093873, 0.00042002470581792295, 0.00021355161152314395, 0.00025240759714506567, 9.2280977696646005e-05, 0.00021669366105925292, 0.00029200446442700922, 0.00034706672886386514, 7.2763003117870539e-05, 0.00035646356991492212, 9.3655115051660687e-05, 0.00010089192073792219, 0.00026048248400911689, 0.00063398614292964339, 0.00012646878894884139, 0.00046237799688242376, 0.00017746356024872512, 0.00024534447584301233, 0.00017183882300741971, 0.00028540138737298548, 0.0001090656005544588, 0.00014698859013151377, 0.00048577575944364071, 4.3475229176692665e-05, 0.00017807295080274343, 0.00031176119227893651, 0.00030433820211328566, 0.00011155962420161813, 0.00015220040222629905, 0.00012643108493648469, 0.00014298107998911291, 0.00028592863236553967, 0.00028046758961863816, 0.00022669031750410795, 0.00011600166180869564, 0.00022573635214939713, 9.9469943961594254e-05, 0.00027078299899585545, 0.00014324024959933013, 0.00036814555642195046, 0.000359091762220487, 0.00015984759374987334, 7.4448762461543083e-05, 5.1058006647508591e-05, 0.0001492986484663561, 0.00025014657876454294, 0.00021918393031228334, 0.00016321764269378036, 0.00026696815621107817, 6.100762402638793e-05, 0.00010311459482181817, 6.8443820055108517e-05, 0.00049642729572951794, 0.00023810366110410541, 0.00012042852176818997, 0.00039742010994814336, 3.0286648325272836e-05, 0.00016002796473912895, 0.00011435135820647702, 0.00032971441396512091, 0.00028061898774467409, } };
const TfLiteAffineQuantization quant10 = { (TfLiteFloatArray*)&quant10_scale, (TfLiteIntArray*)&g0::quant6_zero, 0 };
const MODEL_SECTION(EI_MODEL_SECTION) ALIGN(16) int8_t tensor_data11[1*3*3*96] = { 
  /* [0][0][][] */ -46,-73,-11,127,21,71,84,-59,-14,-19,-17,-3,-31,-1,36,2,-10,-42,27,20,15,-127,127,7,-77,7,52,-29,-122,-127,38,25,11,26,59,-16,-29,-12,31,-1,-12,29,-110,71,23,-64,38,47,-18,53,-24,19,4,-8,16,46,-95,-50,-62,-18,-10,3,13,40,70,-25,78,14,-6,18,21,127,24,20,27,-1,-8,16,127,-6,-13,14,-30,21,123,25,-72,-17,0,-32,-16,-40,0,-23,-15,27, 127,-126,72,107,-44,127,39,-117,68,5,-18,127,127,-96,-14,18,10,127,127,-112,127,-78,82,69,-125,-107,-67,-34,-57,45,-59,-21,-92,55,-127,-80,-43,-16,-51,70,1,127,127,83,-51,-109,-112,-50,-15,-127,41,82,73,-31,43,80,-51,42,-83,-111,-44,-40,-63,68,75,-62,29,30,-76,34,-16,91,120,127,13,19,3,57,-32,53,66,127,127,-24,-11,78,-105,127,-116,-100,3,-127,-91,-127,-38,108, -75,-15,29,-78,13,-14,71,-9,79,-35,-28,17,-21,-2,-9,-11,-10,-19,9,-5,-28,-103,33,1,-127,93,6,-54,116,48,-16,9,0,16,12,-29,-9,31,19,22,28,15,-122,63,16,-19,39,14,-14,12,-17,5,-10,0,-2,18,-71,6,-39,52,2,44,38,1,-4,-39,-28,24,9,4,-2,40,11,-27,-6,7,-9,-6,-81,0,-21,-25,-20,3,-113,15,-28,-23,-48,27,-27,-32,28,-24,-15,3, 
  /* [0][1][][] */ -67,-74,69,-38,-49,83,20,127,-53,-23,-1,-118,25,-112,77,32,-2,-58,-17,90,55,-60,50,52,-98,-7,127,-23,-24,63,121,-101,-127,87,-85,-54,-35,31,-29,99,-50,-24,-5,44,-48,127,-24,67,15,98,17,-2,12,-55,25,30,127,121,-69,-84,127,-34,-35,127,72,-38,-16,0,127,37,127,98,-41,101,-1,13,17,16,-32,10,-41,122,-83,114,3,36,-50,31,76,-127,-31,-6,127,-66,-22,0, 66,127,53,-115,127,74,89,39,-127,127,127,-40,-67,-127,-127,127,127,-62,-121,-48,109,95,-122,127,-113,-86,-43,127,-127,108,-127,-127,-90,127,105,127,127,-127,-105,127,-67,-93,111,-127,-127,-35,-127,-127,127,-111,81,40,127,127,127,-127,100,-127,-127,127,19,-82,-127,-99,-127,127,-127,127,-120,-127,-107,-83,-127,-81,127,127,-127,127,-75,127,127,30,-44,-127,58,127,95,48,127,12,127,1,-68,36,127,-127, -56,-14,-51,40,-57,-85,37,-27,17,-36,-29,89,0,99,14,10,-5,62,-6,127,2,-79,-38,10,-89,98,-74,-19,-70,-17,16,-61,-70,40,5,-18,-28,43,-70,46,127,-2,-40,27,-40,-61,17,46,9,120,-13,6,-39,-72,4,16,93,2,-3,23,-33,127,96,-50,-42,13,38,-10,-76,120,-18,-84,1,-53,-15,-18,28,17,75,-38,-68,-43,57,14,-50,-15,76,23,17,63,-44,20,-44,98,-27,-4, 
  /* [0][2][][] */ -73,1,-8,-21,12,-41,69,26,53,-29,-37,-4,18,23,-26,1,-8,65,7,4,-58,-76,4,-4,-14,-45,34,-70,86,39,24,24,17,-10,-11,-46,-7,35,-4,-2,-17,-4,-68,105,5,32,11,37,-16,-28,11,-20,21,-3,9,15,-68,24,-17,14,15,0,-18,-4,1,-47,-46,13,-28,13,27,30,13,-21,27,4,21,8,-78,-13,-6,-7,15,17,-127,12,16,-43,-54,-48,-28,-49,8,59,-19,-7, 116,34,-127,-33,-73,-18,41,29,-66,-31,-19,-111,-78,118,-12,37,4,-51,-7,-126,90,-46,-37,3,-98,127,-50,20,-36,-20,-10,-6,-62,14,26,5,-22,-29,127,59,8,-12,68,-36,-37,76,-68,-45,-33,-6,-127,-127,-53,-25,5,37,-72,-5,6,40,-5,-17,13,-46,-53,33,66,-23,116,108,-23,-69,11,-59,2,6,100,8,51,20,13,-94,-51,5,4,12,127,41,-53,40,-18,-111,40,82,-9,28, -60,11,-21,29,14,-60,-127,1,-13,-10,-16,1,15,-20,19,-2,-9,-16,6,20,-54,-72,16,4,21,-93,18,3,-47,-39,-8,16,43,-19,-5,-29,-34,1,40,-43,23,0,-50,-34,3,64,25,16,-9,-2,10,-8,17,5,-1,-6,-60,-12,-1,-37,-9,11,88,-8,36,-2,1,25,5,5,-4,23,-17,15,0,17,38,3,73,-13,4,-9,-8,-15,70,5,46,-38,56,41,-18,-49,-9,4,-15,-15, 
};
const TfArray<4, int> tensor_dimension11 = { 4, { 1,3,3,96 } };
const TfArray<96, float> quant11_scale = { 96, { 0.0059469542466104031, 0.0043332171626389027, 0.0050956299528479576, 0.0095990318804979324, 0.0099075706675648689, 0.0096065355464816093, 0.0030859394464641809, 0.0038629609625786543, 0.010941651649773121, 0.0095780258998274803, 0.012023758143186569, 0.0051376610063016415, 0.012184279970824718, 0.0094129694625735283, 0.019071981310844421, 0.0061187916435301304, 0.009290807880461216, 0.0085848364979028702, 0.0073867775499820709, 0.0041557056829333305, 0.002881824504584074, 0.0018612701678648591, 0.0058455439284443855, 0.0048641636967658997, 0.0033957937266677618, 0.0045167566277086735, 0.0073155248537659645, 0.0067063323222100735, 0.0033473740331828594, 0.020388407632708549, 0.015701740980148315, 0.010064826346933842, 0.0048088994808495045, 0.0050469478592276573, 0.010806192643940449, 0.019616873934864998, 0.017851049080491066, 0.0090759433805942535, 0.010727322660386562, 0.0039219413883984089, 0.0092094801366329193, 0.012410189025104046, 0.014750336296856403, 0.0030924275051802397, 0.01514970138669014, 0.003980342298746109, 0.0042879064567387104, 0.01107050571590662, 0.026944410055875778, 0.0053749233484268188, 0.019651064649224281, 0.0075422013178467751, 0.010427140630781651, 0.0073031499050557613, 0.012129558250308037, 0.0046352879144251347, 0.0062470147386193275, 0.020645469427108765, 0.0018476971890777349, 0.0075681004673242569, 0.013249849900603294, 0.012934373691678047, 0.0047412840649485588, 0.0064685172401368618, 0.0053733210079371929, 0.0060766958631575108, 0.01215196680277586, 0.011919871903955936, 0.0096343383193016052, 0.0049300706014037132, 0.0095937950536608696, 0.0042274724692106247, 0.011508277617394924, 0.006087710615247488, 0.015646185725927353, 0.015261399559676647, 0.0067935227416455746, 0.0031640722882002592, 0.0021699653007090092, 0.0063451924361288548, 0.010631229728460312, 0.0093153165653347969, 0.0069367494434118271, 0.011346146464347839, 0.0025928239338099957, 0.0043823700398206711, 0.0029088624287396669, 0.02109815925359726, 0.010119405575096607, 0.0051182121969759464, 0.016890354454517365, 0.0012871825601905584, 0.0068011884577572346, 0.0048599326983094215, 0.014012861996889114, 0.011926306411623955, } };
const TfLiteAffineQuantization quant11 = { (TfLiteFloatArray*)&quant11_scale, (TfLiteIntArray*)&g0::quant6_zero, 3 };
const MODEL_SECTION(EI_MODEL_SECTION) ALIGN(16) int32_t tensor_data12[96] = { 1886, 5900, 9493, 25201, 19291, -3251, -1441, 4640, 23066, -3429, 8386, 4186, 6607, 8749, 26267, 1382, 2005, 8394, 10903, 5259, -193, 462, 10939, -1028, 3421, -38, 9775, 7429, 4625, 29129, 37237, 16970, 7039, -519, 7955, 2620, 1192, 3669, 23404, -744, 10343, 8784, 37728, -4337, 25023, 5497, 5015, 12811, 46731, 7638, -267, 6096, -3618, -112, -1644, 7640, -216, 13716, 5877, 6980, 4258, 12741, 6441, 4665, 8923, 9602, 3965, -3582, 6366, -2914, 4788, 7287, 16735, 4978, -3404, -4088, 5181, 364, 1883, -786, 14992, 10343, 5143, 12068, 2308, 386, 8729, 60590, 7529, 7515, 5121, -294, 4726, 7330, 4363, 12759, };
const TfArray<96, float> quant12_scale = { 96, { 0.0002576305705588311, 0.00024882770958356559, 0.00019622352556325495, 9.1512927610892802e-05, 0.0001567308499943465, 0.00032334891147911549, 0.00054325215751305223, 0.00035326177021488547, 0.00010154338815482333, 0.00039487960748374462, 0.00032132476917468011, 0.0002201901952503249, 0.00019274669466540217, 0.00026230982621200383, 9.0722656750585884e-05, 0.00038942368701100349, 0.00024372906773351133, 0.000148789506056346, 0.00020451693853829056, 0.00023136513482313603, 0.00039212274714373052, 0.0005122555885463953, 0.00017980120901484042, 0.00060083321295678616, 0.00076408643508329988, 0.00034420780139043927, 0.00022731955687049776, 0.00019756784604396671, 0.00035634450614452362, 0.00012145709479227662, 7.5824827945325524e-05, 0.00014547827595379204, 0.00023732392583042383, 0.0003887224302161485, 0.00025266280863434076, 0.00021125197235960513, 0.00040549514233134687, 0.00040653196629136801, 0.00011757909669540823, 0.00081737391883507371, 0.00017886090790852904, 0.00017451502208132297, 7.2431306762155145e-05, 0.00023747736122459173, 0.0001299425057368353, 0.00027782082906924188, 0.00033782792161218822, 0.00021129308152012527, 8.8459797552786767e-05, 0.00027839810354635119, 0.00029445509426295757, 0.00028094698791392148, 0.00029251325759105384, 0.00027369879535399377, 0.00063124659936875105, 0.0001439828920410946, 0.00028090758132748306, 0.00013571200543083251, 0.0003554689756128937, 0.00021215791639406234, 0.00037594183231703937, 0.0001108718424802646, 0.00022205806453712285, 0.00021189384278841317, 0.0002778062189463526, 0.0002004067791858688, 0.00031102672801353037, 0.00037020654417574406, 0.00025830595404841006, 0.00024085880431812257, 0.00024072962696664035, 0.00021181466581765562, 0.0001223311701323837, 0.00020948040764778852, 0.00044639146653935313, 0.00032896196353249252, 0.0003107716329395771, 0.00035640259739011526, 0.00041697683627717197, 0.00043534158612601459, 0.00013592686445917934, 0.00016130434232763946, 0.00017302484775427729, 0.00015540140157099813, 0.00050792383262887597, 0.00029026062111370265, 0.00026741629699245095, 6.2638515373691916e-05, 0.0001842469209805131, 0.00030297512421384454, 0.00024544729967601597, 0.0003209223214071244, 0.00030959831201471388, 0.00021298797219060361, 0.00025523832300677896, 0.00012975552817806602, } };
const TfLiteAffineQuantization quant12 = { (TfLiteFloatArray*)&quant12_scale, (TfLiteIntArray*)&g0::quant6_zero, 0 };
const MODEL_SECTION(EI_MODEL_SECTION) ALIGN(16) int8_t tensor_data13[96*1*1*16] = { 
  /* [0][0][][] */ 6,68,0,75,12,22,18,10,0,25,-101,97,23,-114,15,-127, 
  /* [1][0][][] */ 31,29,-22,-16,33,-23,127,-94,20,79,-12,-12,1,-33,37,20, 
  /* [2][0][][] */ -127,76,-4,-14,2,-19,15,107,-94,16,103,-42,-70,24,12,-32, 
  /* [3][0][][] */ -127,114,53,70,-95,40,38,113,-23,58,-116,9,33,-127,-123,-88, 
  /* [4][0][][] */ 41,-7,29,79,-34,103,-13,52,31,-32,27,28,35,12,-127,-47, 
  /* [5][0][][] */ -9,-62,90,-23,31,-42,-16,21,-93,86,-30,-127,-9,43,-60,-23, 
  /* [6][0][][] */ 11,4,13,-18,24,45,-49,-56,-24,5,57,-7,127,-11,0,-47, 
  /* [7][0][][] */ 3,16,127,0,-12,-4,-7,-21,-66,48,-93,-55,3,-7,18,-16, 
  /* [8][0][][] */ -25,39,58,52,-50,85,9,46,12,-8,6,-87,-15,-16,-127,-59, 
  /* [9][0][][] */ -17,-127,63,33,43,-34,6,-12,103,16,80,-31,-68,13,-106,-37, 
  /* [10][0][][] */ -53,-100,-7,-42,-127,-12,-8,52,80,104,46,-83,-52,39,102,4, 
  /* [11][0][][] */ 52,-8,26,-107,59,-40,-113,-127,-54,54,-16,-68,-1,-29,19,-115, 
  /* [12][0][][] */ -6,-4,-3,-25,-29,-30,-76,-21,-37,-48,-8,21,10,127,96,35, 
  /* [13][0][][] */ -30,-108,-45,19,-2,-49,3,-68,97,23,10,7,8,-1,127,26, 
  /* [14][0][][] */ 18,-45,58,34,0,27,6,127,9,28,11,-22,22,51,-47,103, 
  /* [15][0][][] */ 32,-42,14,68,16,-4,101,7,-4,-127,3,-32,-8,-40,-18,-31, 
  /* [16][0][][] */ 44,-75,-41,36,5,-7,21,-73,115,45,71,26,-7,101,77,127, 
  /* [17][0][][] */ -60,-63,83,124,103,32,21,11,127,-35,-21,6,24,75,-90,21, 
  /* [18][0][][] */ 3,17,-23,18,-127,-15,-3,50,-33,-32,-39,-53,-1,-115,81,3, 
  /* [19][0][][] */ 23,-90,40,-79,64,4,-85,117,36,-59,118,-5,-19,104,41,127, 
  /* [20][0][][] */ 28,-7,54,-75,-10,-3,-31,50,-20,-50,106,-18,19,-2,-40,127, 
  /* [21][0][][] */ -58,-34,15,-51,27,1,-99,-77,-34,44,-25,-13,-127,-12,-4,-9, 
  /* [22][0][][] */ 24,-47,23,-29,11,-90,7,-10,-127,26,-32,-70,-23,-8,87,-21, 
  /* [23][0][][] */ 11,24,24,-8,11,0,-18,7,-19,-18,36,-14,127,-4,1,-41, 
  /* [24][0][][] */ -29,-1,30,-69,15,11,30,-12,-17,17,18,-127,14,-97,31,0, 
  /* [25][0][][] */ -9,-18,-3,68,74,-80,-17,-46,-40,79,-120,-127,19,-112,-14,67, 
  /* [26][0][][] */ 68,-22,26,-127,101,-20,-1,-3,95,-79,52,-30,-32,87,28,83, 
  /* [27][0][][] */ 101,-17,20,-37,-30,-46,4,-31,-29,28,-127,30,3,-21,4,43, 
  /* [28][0][][] */ -91,-1,-127,-62,34,-7,66,-41,2,50,-41,12,26,-6,-32,27, 
  /* [29][0][][] */ -61,-36,-7,127,-16,3,13,-32,-35,-14,-87,32,10,-82,25,-39, 
  /* [30][0][][] */ 40,23,127,-35,83,55,-11,86,-28,-65,80,-50,-38,4,-78,74, 
  /* [31][0][][] */ 5,-80,-16,-68,0,-73,36,-65,-21,62,116,44,-43,78,88,127, 
  /* [32][0][][] */ -5,63,-27,33,-127,17,-74,-44,-53,-39,-7,43,10,42,31,65, 
  /* [33][0][][] */ 13,-8,33,127,20,5,7,-78,-105,38,67,-19,5,-11,12,101, 
  /* [34][0][][] */ 19,7,15,1,57,-52,-127,-46,-66,83,-29,17,8,-2,2,-18, 
  /* [35][0][][] */ 127,14,5,-47,18,-110,-32,-17,-69,-34,-109,-23,106,12,-4,91, 
  /* [36][0][][] */ 13,-4,-127,4,46,20,-31,25,-41,-16,-6,-7,4,16,-16,-5, 
  /* [37][0][][] */ 3,6,127,-10,-56,12,9,-66,-18,25,-44,16,20,-12,20,-6, 
  /* [38][0][][] */ -116,48,-30,35,19,127,25,-20,54,-17,126,-44,-34,33,-23,-18, 
  /* [39][0][][] */ -30,-3,15,31,31,-26,-127,40,7,23,2,-52,-1,-32,-10,6, 
  /* [40][0][][] */ -43,120,-22,127,-24,53,68,6,-122,-42,-57,67,40,26,-50,-65, 
  /* [41][0][][] */ 38,-15,-59,-35,-56,-20,127,118,-38,72,-55,-13,24,81,14,-20, 
  /* [42][0][][] */ -28,-85,-63,-17,-45,-18,-31,89,44,-127,81,6,-74,28,-91,15, 
  /* [43][0][][] */ -87,-5,45,-50,39,-3,-106,-108,-50,30,-17,-40,-127,-23,26,-3, 
  /* [44][0][][] */ 33,-1,-7,29,18,-16,25,-24,127,0,3,57,21,92,-15,44, 
  /* [45][0][][] */ -80,-71,-4,-78,26,17,-6,54,-23,-49,-25,-8,30,95,-33,127, 
  /* [46][0][][] */ -43,21,-40,91,-85,-22,13,-79,-127,60,-46,-17,-11,5,-8,-31, 
  /* [47][0][][] */ -42,-22,-124,127,6,44,6,-26,7,66,59,66,-21,-35,24,-13, 
  /* [48][0][][] */ -14,-5,38,-127,34,-35,-15,-18,-50,24,8,16,0,28,76,10, 
  /* [49][0][][] */ -6,63,16,91,-12,4,-12,9,-14,-39,-127,-30,-15,-58,-93,-103, 
  /* [50][0][][] */ -6,76,32,-127,60,2,-26,19,117,-14,-15,14,-7,-51,47,-25, 
  /* [51][0][][] */ 40,-46,32,1,64,-16,-53,-127,25,-62,-37,-16,-5,-4,-1,-26, 
  /* [52][0][][] */ 35,15,-20,47,44,-14,-66,127,-77,114,-39,-41,83,88,2,-43, 
  /* [53][0][][] */ -4,94,30,-72,-15,10,42,-39,-48,-35,-45,64,11,-127,-119,-29, 
  /* [54][0][][] */ -6,-6,18,17,36,-27,-3,-37,-9,21,-23,-26,-5,127,-33,-8, 
  /* [55][0][][] */ -127,112,78,-18,42,-22,-12,-14,-55,45,96,-26,-6,-52,119,-4, 
  /* [56][0][][] */ 62,-34,28,-105,69,-32,26,7,36,-17,62,127,28,56,80,44, 
  /* [57][0][][] */ -29,1,15,60,-18,35,37,127,-9,10,16,-49,-14,64,6,12, 
  /* [58][0][][] */ 5,114,-6,-123,23,31,-17,22,127,2,8,108,1,-97,84,56, 
  /* [59][0][][] */ 50,32,42,-106,-29,7,54,3,7,26,10,-67,-13,-127,-77,38, 
  /* [60][0][][] */ 34,-16,117,-48,-49,127,12,-28,-13,20,-58,-18,28,23,27,-10, 
  /* [61][0][][] */ 3,30,-49,-54,-54,-9,91,127,-2,56,42,22,-7,80,42,1, 
  /* [62][0][][] */ 24,0,-41,-6,-90,0,-86,13,-43,-8,16,-58,-31,-127,98,17, 
  /* [63][0][][] */ 20,-16,13,-89,24,-24,-127,-104,-75,97,-20,8,35,-9,-1,-53, 
  /* [64][0][][] */ -41,15,44,45,58,-7,-50,-99,20,-127,23,-46,-22,-20,-12,4, 
  /* [65][0][][] */ -127,9,49,-68,10,57,30,-57,-94,19,27,-25,21,11,-25,-29, 
  /* [66][0][][] */ 21,25,84,10,-56,52,-47,42,-29,-19,85,-87,-41,32,-127,-15, 
  /* [67][0][][] */ 15,-8,-50,54,58,-49,-81,-79,42,-127,-61,-29,-75,15,-61,29, 
  /* [68][0][][] */ 51,-28,-102,63,-49,-64,21,-71,-11,-7,56,-39,-20,63,127,0, 
  /* [69][0][][] */ 1,49,-108,79,-9,-118,33,100,36,15,82,-29,127,50,0,13, 
  /* [70][0][][] */ -5,-17,-39,-37,-30,-1,127,113,-10,63,-30,-4,-11,45,0,12, 
  /* [71][0][][] */ 3,-24,-37,-56,19,-15,7,56,-21,-55,-14,-32,15,-127,84,-5, 
  /* [72][0][][] */ 68,43,-3,46,41,-78,-48,-127,40,59,-65,36,66,70,55,86, 
  /* [73][0][][] */ -49,-127,-9,-57,-89,-20,26,-48,-30,11,-23,-36,26,-61,77,-8, 
  /* [74][0][][] */ -34,33,61,76,11,5,-127,84,18,-47,-38,-32,19,-2,-21,-12, 
  /* [75][0][][] */ -45,17,-9,17,-14,93,78,127,-1,64,-7,-11,-112,81,20,4, 
  /* [76][0][][] */ 14,-32,-10,-32,116,-99,-127,-71,-13,-52,-24,-60,63,10,41,-21, 
  /* [77][0][][] */ -50,20,-43,-31,-63,-35,-26,-48,127,-3,-91,45,-12,45,32,-88, 
  /* [78][0][][] */ -122,-127,-32,90,53,69,-47,43,-13,-75,-117,63,31,-37,101,93, 
  /* [79][0][][] */ 27,-11,35,-62,127,2,48,13,79,20,-3,30,-4,-14,16,-39, 
  /* [80][0][][] */ 4,-58,67,-123,-32,-62,13,31,-127,-52,-48,-71,42,125,-59,26, 
  /* [81][0][][] */ 13,0,32,37,4,47,-5,-10,25,8,17,-35,1,29,-127,20, 
  /* [82][0][][] */ -46,-7,3,-127,-7,-45,21,-66,-34,-28,-38,-82,-17,-117,-82,36, 
  /* [83][0][][] */ -41,5,-32,-61,-31,48,-3,10,-68,5,26,-127,-7,-125,-6,56, 
  /* [84][0][][] */ 127,28,11,49,-50,-23,-53,16,-23,-25,89,-11,-90,17,89,-47, 
  /* [85][0][][] */ 2,-37,30,-28,50,-11,-37,96,-86,-105,-80,-37,-13,71,43,-127, 
  /* [86][0][][] */ 27,-10,68,20,-49,96,-88,33,-61,-55,46,-29,-24,-127,-29,-14, 
  /* [87][0][][] */ 80,-16,3,-33,-74,-127,-22,-3,-22,5,-109,-23,43,-21,26,40, 
  /* [88][0][][] */ 21,41,-93,-4,-37,-75,-17,-5,56,16,6,53,-47,-59,96,-127, 
  /* [89][0][][] */ 41,40,-64,-12,-37,-33,26,-60,37,39,14,-28,-45,7,-37,-127, 
  /* [90][0][][] */ -27,-71,36,-86,-79,-8,127,-107,95,-104,4,-96,85,-28,-83,-32, 
  /* [91][0][][] */ 20,-2,-15,-127,-60,-5,32,-48,-46,43,93,99,39,-1,76,118, 
  /* [92][0][][] */ -3,35,-13,17,60,6,-62,-127,42,-53,9,-23,-46,-20,-12,-33, 
  /* [93][0][][] */ 93,1,27,-127,-48,-18,-15,81,43,-86,63,9,5,127,-8,29, 
  /* [94][0][][] */ -92,58,-108,-6,47,-127,-10,16,-18,-57,106,-24,-1,5,-15,-4, 
  /* [95][0][][] */ -92,83,32,-127,-45,-22,-57,9,9,-68,-98,-101,-17,-1,-105,20, 
};
const TfArray<96, float> quant13_scale = { 96, { 0.00068359758006408811, 0.0006602400098927319, 0.00052065995987504721, 0.00024282062076963484, 0.00041587001760490239, 0.00085797475185245275, 0.001441466505639255, 0.00093734561232849956, 0.00026943546254187822, 0.001047774450853467, 0.0008526038727723062, 0.00058425316819921136, 0.00051143451128154993, 0.00069601350696757436, 0.00024072370433714241, 0.0010332977399230003, 0.00064671126892790198, 0.00039479840779677033, 0.00054266571532934904, 0.0006139047909528017, 0.0010404593776911497, 0.001359220128506422, 0.00047708494821563363, 0.001594252185896039, 0.0020274287089705467, 0.00091332179727032781, 0.00060317025054246187, 0.0005242269835434854, 0.00094552530208602548, 0.00032227454357780516, 0.00020119377586524934, 0.00038601239793933928, 0.00062971585430204868, 0.0010314369574189186, 0.00067041610600426793, 0.00056053645676001906, 0.001075941720046103, 0.0010786928469315171, 0.00031198465148918331, 0.002168821869418025, 0.00047458996414206922, 0.00046305856085382402, 0.00019218939996790141, 0.00063012295868247747, 0.00034478976158425212, 0.00073717045597732067, 0.00089639337966218591, 0.0005606455379165709, 0.00023471942404285073, 0.00073870219057425857, 0.00078130781184881926, 0.00074546539690345526, 0.00077615538612008095, 0.00072623300366103649, 0.0016749511705711484, 0.00038204452721402049, 0.00074536085594445467, 0.00036009855102747679, 0.00094320223433896899, 0.00056294031674042344, 0.00099752494134008884, 0.00029418760095722973, 0.00058920937590301037, 0.00056223961291834712, 0.00073713163146749139, 0.00053175981156527996, 0.0008252790430560708, 0.00098230689764022827, 0.00068538961932063103, 0.00063909532036632299, 0.00063875253545120358, 0.00056202954147011042, 0.00032459379872307181, 0.00055583578068763018, 0.0011844561668112874, 0.00087286840425804257, 0.00082460220437496901, 0.00094567949417978525, 0.0011064072605222464, 0.0011551363859325647, 0.00036066866596229374, 0.00042800529627129436, 0.00045910451444797218, 0.00041234242962673306, 0.0013477262109518051, 0.00077017821604385972, 0.00070956302806735039, 0.00016620517999399453, 0.00048888119636103511, 0.00080391491064801812, 0.00065127044217661023, 0.00085153599502518773, 0.00082148885121569037, 0.00056514277821406722, 0.00067724997643381357, 0.00034429359948262572, } };
const TfLiteAffineQuantization quant13 = { (TfLiteFloatArray*)&quant13_scale, (TfLiteIntArray*)&g0::quant6_zero, 0 };
const MODEL_SECTION(EI_MODEL_SECTION) ALIGN(16) int32_t tensor_data14[16] = { 922, -7589, -5923, 26561, 29731, 6621, -8471, -5010, 32038, -1288, 31032, 23616, -6920, 16296, 33862, -22364, };
const TfArray<16, float> quant14_scale = { 16, { 0.0004277429252397269, 0.00026063571567647159, 0.00034617653000168502, 0.00022870046086609364, 0.00039639626629650593, 0.00031727255554869771, 0.00030570887611247599, 0.00039312258013524115, 0.00017600992578081787, 0.0002590912627056241, 0.0004203587886877358, 0.00080835301196202636, 0.0004115615738555789, 0.00046312034828588367, 0.00044609286123886704, 0.00037636933848261833, } };
const TfLiteAffineQuantization quant14 = { (TfLiteFloatArray*)&quant14_scale, (TfLiteIntArray*)&g0::quant8_zero, 0 };
const MODEL_SECTION(EI_MODEL_SECTION) ALIGN(16) int8_t tensor_data15[16*1*1*96] = { 
  /* [0][0][][] */ -1,19,0,17,53,62,-20,-20,50,7,7,14,0,21,23,62,-8,-18,-16,-9,92,-48,18,-22,-25,-35,-31,-90,-1,-11,55,41,111,-11,14,-8,6,-30,-19,-6,-43,24,18,-28,18,-25,-10,25,-22,27,1,-15,-39,-19,10,-9,44,30,-18,-31,-74,26,-4,-7,4,15,59,3,18,11,1,-33,-77,-8,3,4,-4,-87,10,-20,53,-7,-59,-45,40,-7,9,34,-7,-8,17,-36,24,7,-9,127, 
  /* [1][0][][] */ 84,-104,44,74,-15,-47,4,-45,-13,-80,-4,43,45,-43,-16,-37,-119,-14,7,43,-31,-104,-13,21,127,-47,-72,42,-20,89,7,67,14,11,-45,11,-23,-29,62,-35,-14,-72,76,-46,-43,23,73,1,22,57,2,-67,83,-81,43,-19,48,30,-10,-109,27,-69,27,-50,0,-76,29,42,37,61,-45,11,-97,45,-7,76,42,96,31,-28,51,18,-95,31,-63,94,-15,77,-40,-6,31,-14,12,-65,46,-17, 
  /* [2][0][][] */ 9,21,5,-14,11,-16,-5,34,44,-15,16,49,-18,8,46,-4,-5,-6,19,-11,-22,-52,-2,-43,-6,-16,-36,20,-17,18,78,-60,13,-63,-33,47,18,127,-47,-26,14,-32,-2,31,-43,-48,-52,11,19,20,-27,-23,29,3,4,-36,-37,-2,3,23,3,8,53,78,21,-66,21,-67,-7,-14,-20,16,-15,-4,-22,17,2,51,3,20,3,70,41,0,-23,-12,6,-2,2,27,-4,-43,-31,-7,-7,62, 
  /* [3][0][][] */ -23,-13,-20,30,27,-24,3,-35,-16,9,-1,10,14,-6,43,-5,42,-24,-2,20,-20,-25,-3,9,5,2,4,-9,34,-37,63,-19,19,-9,-8,37,-10,-18,7,13,-2,-83,33,-13,-12,-10,5,26,-127,48,-22,17,-111,-46,-11,-27,29,2,-7,58,-4,26,3,8,-16,-84,-44,20,67,24,1,29,-38,25,-8,-36,-42,-48,23,-46,26,-30,16,61,35,58,27,9,36,-29,-1,12,-36,9,-18,-28, 
  /* [4][0][][] */ -10,-21,12,-63,-9,-5,-52,8,-24,-42,-36,-8,10,57,-3,5,56,-27,0,-9,-12,22,36,4,-13,-14,14,11,4,-10,-8,-14,-43,1,4,20,37,-14,-7,-10,8,11,-89,-15,22,-11,-7,-24,11,67,-5,-12,-24,4,4,0,-16,-23,24,25,9,-3,8,-15,31,-122,19,-25,-34,17,3,-13,-11,13,-31,17,-15,51,47,-10,7,-5,127,-24,25,-25,-11,-16,57,29,-17,29,-38,16,-9,-30, 
  /* [5][0][][] */ -12,10,6,-1,-2,-31,6,94,57,-17,-8,-48,-19,39,51,22,-32,3,-9,-31,-72,-14,-2,-45,11,25,27,97,82,7,60,51,-56,12,6,-13,-57,-64,-26,-16,-33,-28,-7,10,63,13,8,25,-3,26,-3,-1,-44,-16,12,5,-22,-34,-8,34,-56,28,-28,-51,-3,19,-22,17,3,23,10,-8,33,6,9,-10,-7,33,15,124,10,-43,32,33,4,-9,13,-32,-17,-29,15,-118,-32,-30,-7,-127, 
  /* [6][0][][] */ -8,-7,-7,-62,1,-31,-12,6,11,25,-7,6,20,-51,14,-8,-15,-68,30,14,13,19,-4,15,88,12,10,11,36,-16,28,3,-28,4,-32,-8,15,-11,36,29,-14,-24,-46,-26,1,-19,28,-127,-8,51,19,10,7,-4,-8,-50,59,-27,-16,4,3,25,8,15,28,93,27,-14,-18,-8,6,-38,16,9,62,-13,-22,28,17,17,-10,2,47,-38,16,62,29,-8,21,-17,-30,-19,-25,6,-6,7, 
  /* [7][0][][] */ 12,-4,26,-19,-9,7,0,-16,-3,-2,-14,-5,-18,-88,31,6,3,-25,0,-7,25,-20,-42,-10,-13,-10,7,-19,-5,11,11,8,-4,6,-22,-26,2,-9,-25,27,4,-21,-24,12,-1,8,-17,67,3,20,-11,-14,-18,3,-17,-63,32,5,-11,6,-6,8,-17,3,-12,46,6,-29,-21,-8,-11,48,-12,-8,-5,10,40,-3,8,-13,-12,-37,32,-5,-28,127,5,12,-41,-23,3,13,-24,3,-7,-1, 
  /* [8][0][][] */ -67,45,-43,7,57,-20,10,36,12,72,-50,-7,13,42,76,-31,-10,26,-84,11,-4,35,-26,7,-45,-19,17,13,69,-98,-13,-11,31,5,33,2,-26,34,-49,61,13,15,11,-114,-42,-1,49,-30,-63,30,14,61,-127,65,29,9,0,-23,-35,-25,25,-44,15,34,-39,33,42,-19,19,13,37,82,-50,29,29,35,-6,-83,-7,-45,10,11,37,6,-72,-5,12,-59,3,51,-39,8,59,-15,-19,-12, 
  /* [9][0][][] */ 22,-62,-27,-26,11,5,-7,-1,30,-25,9,5,-65,-27,19,21,2,17,55,-31,-20,14,-30,-38,32,30,13,-21,-31,-42,-42,7,-2,27,8,31,6,55,-23,32,37,10,-13,-87,-1,-17,27,-127,-31,-3,5,14,-6,20,-10,18,-63,32,-1,34,20,8,15,43,32,123,43,50,11,-12,3,-20,-17,-12,-27,9,64,-5,2,42,-9,17,40,-50,7,14,-1,-2,-60,47,-20,7,19,28,11,-16, 
  /* [10][0][][] */ 26,51,-15,28,65,-127,-3,-32,24,53,30,-9,-12,7,18,-73,5,34,-25,34,-85,-10,-4,-32,-70,-11,-52,55,24,4,-1,40,-19,-17,36,-17,79,-33,-13,-14,-18,66,35,-12,-51,-14,-30,11,-19,-6,-26,2,-15,-8,0,-6,9,25,-19,-5,-11,-6,-16,15,-6,44,46,29,21,6,34,40,-60,-28,-49,-15,-7,24,-8,-10,41,7,-58,-37,59,-39,87,-4,-33,5,19,-7,77,25,-10,-119, 
  /* [11][0][][] */ 44,33,-26,24,5,12,53,9,0,-23,-28,-9,-4,3,39,-4,-9,-2,-90,-5,-8,15,0,-12,-43,-23,-4,9,8,23,0,-3,-1,8,11,18,4,12,-7,28,3,22,51,-87,34,-28,-5,-10,-127,9,12,-45,11,10,-15,10,-12,-20,5,3,19,-16,-10,8,-47,54,-15,21,29,-5,30,17,-54,-28,9,22,-4,-25,-48,3,22,11,87,38,-6,-15,-15,-10,3,26,-18,0,7,10,-20,14, 
  /* [12][0][][] */ -49,-7,-1,12,-36,28,-1,10,127,-1,-14,11,-3,3,-41,-45,26,16,9,55,41,30,-20,-20,13,-8,15,-29,-117,2,10,-45,17,-4,-11,-14,14,8,15,-6,-39,-27,12,5,-10,37,-7,-4,23,-2,-43,7,4,2,10,-18,61,-34,12,9,22,1,3,-18,-6,17,-35,-1,-1,2,-18,-31,27,0,-87,4,15,-1,-4,-82,2,1,56,51,-21,-29,-36,-32,5,29,-5,41,-10,-31,12,0, 
  /* [13][0][][] */ 18,-12,-28,24,27,3,5,0,-9,4,13,-4,1,-19,-3,-17,24,-66,-19,-1,-3,-25,16,-4,4,9,-2,-13,-23,-31,-5,20,-3,3,2,42,13,-9,-6,5,7,9,18,35,19,10,-13,-127,24,-9,11,12,-16,-5,7,-3,-6,20,4,16,-2,5,-2,4,-14,-14,-23,-55,-2,5,-9,-33,-17,26,4,15,-26,-16,16,6,20,-11,-11,17,6,29,19,24,-5,3,14,3,-5,16,-12,-1, 
  /* [14][0][][] */ -114,-59,39,32,21,-25,-40,0,-6,19,2,13,73,-3,-127,2,77,-14,-3,37,-2,3,60,16,-123,14,41,-10,-32,-67,-27,12,-11,5,30,-66,33,17,-1,2,17,46,-21,-33,13,127,94,64,-112,43,3,29,-61,-12,13,-12,10,17,64,68,16,50,33,31,-7,-3,-48,45,9,71,-41,-91,-75,-8,2,34,0,34,105,-12,62,17,21,16,56,32,66,44,18,30,65,8,-5,13,25,-17, 
  /* [15][0][][] */ 94,-5,58,11,-10,46,42,10,5,57,3,13,-93,-28,-17,40,17,19,39,-8,21,39,-72,51,15,2,71,4,16,33,-44,-62,17,-59,57,-16,55,-58,-68,-113,-17,33,9,39,9,55,-6,-25,95,-58,-38,35,30,-110,49,-111,-6,-59,3,29,-127,2,23,22,59,0,-55,43,-33,84,-10,10,13,7,11,1,24,-58,61,-5,8,-7,35,78,-28,15,23,-27,15,-18,65,-2,-60,33,20,-14, 
};
const TfArray<16, float> quant15_scale = { 16, { 0.018179073929786682, 0.011077017523348331, 0.014712502248585224, 0.0097197694703936577, 0.01684684120118618, 0.013484083116054535, 0.012992626987397671, 0.016707709059119225, 0.00748042156919837, 0.011011377908289433, 0.017865248024463654, 0.034355003386735916, 0.01749136671423912, 0.019682614132761955, 0.018958946689963341, 0.015995696187019348, } };
const TfLiteAffineQuantization quant15 = { (TfLiteFloatArray*)&quant15_scale, (TfLiteIntArray*)&g0::quant8_zero, 0 };
const MODEL_SECTION(EI_MODEL_SECTION) ALIGN(16) int32_t tensor_data16[96] = { 10346, -9724, 3365, 59382, -1561, -4328, -10059, 4416, -2722, 787, 3404, -406, -459, -5235, 5145, -6627, -129, 17693, 25543, 2395, 2453, -1480, 1103, -420, 16805, -446, -512, -2890, -5704, -8453, 9131, -9403, -770, -1457, -1665, 12867, 2309, -4537, 21307, -24, -370, 2067, -9893, -7622, -7574, 64991, 1023, 15223, 32476, -12939, 171, 6743, 8491, -451, -6417, 2428, -10919, 1381, 2318, -6527, -486, -709, -12717, -1269, 606, 14986, 29671, 24089, -13802, 1157, -8005, -619, 45720, 11666, 453, 195, 18905, 31693, -1057, -7140, -2191, -6861, 922, -3558, 1517, 1084, 2029, 1042, 2131, -4378, -14, -942, -555, 408, 44, 52011, };
const TfArray<96, float> quant16_scale = { 96, { 0.00020441906235646456, 9.6841889899224043e-05, 0.0002466463774908334, 3.6668960092356429e-05, 0.00014820374781265855, 0.00017833433230407536, 0.00034822325687855482, 7.2973700298462063e-05, 0.00011988691403530538, 0.00043676383211277425, 0.00016893280553631485, 0.00039743719389662147, 0.00013001066690776497, 0.00042102424777112901, 0.00018682413792703301, 0.00012185445666546002, 0.00010469750122865662, 0.00029494662885554135, 5.9316298575140536e-05, 0.00022574093600269407, 4.6165503590600565e-05, 0.00018091837409883738, 0.00014568850747309625, 0.00034348477493040264, 0.0002115407696692273, 0.0002403411635896191, 0.00014040828682482243, 0.00019467860693112016, 0.00010996601486112922, 8.4456747572403401e-05, 0.00010403371561551467, 0.00017696742725092918, 0.00011989053746219724, 0.00012280534429010004, 0.00019369953952264041, 0.00018020207062363625, 0.00040216476190835238, 0.00012204518134240061, 4.9329850298818201e-05, 0.00016099640924949199, 0.00024883743026293814, 0.00031256926013156772, 0.00037994066951796412, 0.00015340399113483727, 0.00019198299560230225, 5.5304561101365834e-05, 0.00022972728766035289, 0.00022932293359190226, 8.3756036474369466e-05, 0.00017445483535993844, 0.0002183150063501671, 0.00019111618166789412, 0.00021781558461952955, 0.00026427162811160088, 0.00028589906287379563, 0.00043777504470199347, 0.00036944349994882941, 0.00024391636543441564, 0.00011025611456716433, 8.4759070887230337e-05, 0.00030031547066755593, 0.00014850094157736748, 0.00029831856954842806, 0.00012488641368690878, 0.00015242777590174228, 0.00019254565995652229, 7.4708696047309786e-05, 7.2596500103827566e-05, 0.00034190379665233195, 0.00022959562193136662, 0.00020159549603704363, 0.000112955502117984, 0.00012710798182524741, 0.0001481043582316488, 0.00014979236584622413, 0.00024389226746279746, 0.00050445989472791553, 5.0962727982550859e-05, 0.00025585672119632363, 0.00024598979507572949, 0.00015701816300861537, 0.00030096707632765174, 0.00012685378897003829, 0.00015808336320333183, 0.00012826366582885385, 9.7903204732574522e-05, 0.00013588722504209727, 0.00021602053311653435, 0.0002105837338604033, 0.00012130403047194704, 0.00020144693553447723, 0.00011403366079321131, 0.00014020237722434103, 0.00044146657455712557, 0.027980342507362366, 7.6836753578390926e-05, } };
const TfLiteAffineQuantization quant16 = { (TfLiteFloatArray*)&quant16_scale, (TfLiteIntArray*)&g0::quant6_zero, 0 };
const MODEL_SECTION(EI_MODEL_SECTION) ALIGN(16) int8_t tensor_data17[1*3*3*96] = { 
  /* [0][0][][] */ -18,3,-21,105,-20,24,-64,-56,17,-6,100,-10,6,-9,-6,56,4,14,-30,4,76,1,34,-34,1,19,43,47,24,15,23,48,-5,28,9,-14,3,49,-60,-26,21,9,27,21,-84,-53,24,-5,-10,-20,-10,-6,48,6,-7,1,-3,-35,26,-30,26,-3,127,27,-13,-11,12,-49,65,36,-1,-8,78,-32,72,4,16,-127,31,62,3,16,127,-13,39,29,-31,-21,36,-3,-13,83,2,20,-2,11, -50,13,-8,11,50,-9,-11,-127,39,15,-127,-4,-12,-15,3,93,17,-33,-11,-16,76,-98,127,26,-60,-32,-104,-17,28,39,-49,18,123,14,-11,0,-25,127,-66,-127,7,-20,-29,16,46,-127,127,-45,-76,47,48,7,38,-62,34,56,37,43,-102,82,127,32,3,-21,43,-38,-96,0,37,-31,-19,48,-49,-50,109,-4,-28,-59,-31,57,-63,60,-16,9,-11,47,55,-44,-27,55,-12,72,-127,-31,23,-127, -1,-4,-24,-73,7,21,37,19,-3,-1,3,62,3,-13,-13,4,-12,16,-12,17,11,23,25,-34,0,-32,10,12,-5,8,46,-78,44,17,12,-22,10,6,-33,-22,6,2,-16,11,23,-30,21,1,6,-6,4,-4,4,6,-3,7,-8,46,7,-3,10,-18,3,-16,-25,-18,31,-47,-106,-8,41,-18,-127,-23,-10,16,10,-11,7,10,-14,23,-37,-4,-42,20,26,34,-24,-13,26,-10,16,6,-1,-50, 
  /* [0][1][][] */ -41,56,-19,37,-87,-15,-11,-46,24,96,-44,-23,-28,-26,-8,61,127,-24,-91,-14,58,-127,-29,15,-35,-48,-127,-7,40,37,-50,28,-127,-77,-54,4,64,-1,-51,49,-17,87,2,-1,34,-48,-13,-32,127,45,-5,21,44,10,-36,-18,29,9,-127,127,-38,-89,21,127,-59,-35,-84,125,-34,127,-21,55,-34,-55,39,9,-36,-69,127,49,127,39,10,0,127,28,-97,46,-38,-31,-101,41,96,100,29,-60, 127,127,127,127,-46,-127,127,22,127,-127,16,-127,-102,127,127,127,-16,-127,-64,-127,127,22,-69,127,127,127,-55,-127,127,127,-127,127,-8,-127,-119,127,-127,-43,97,112,-127,-127,127,127,127,-119,-109,127,-13,127,-127,-127,-127,127,127,-127,127,-127,-43,39,-108,-26,-69,-67,127,127,-73,127,127,-110,-127,127,-41,127,-127,-127,-127,125,-75,127,-39,127,79,127,-39,-127,-25,-110,-127,-119,-22,-127,-21,-127,-127,117, -25,63,-39,3,127,72,-21,45,5,24,-15,-5,-23,-30,-15,-8,-105,-22,-127,37,33,74,-13,-117,-34,-43,124,72,12,37,70,8,125,-50,127,-3,53,6,-96,16,36,24,-21,2,-23,-50,-13,-43,80,15,-13,40,-7,-4,-73,-13,24,21,127,-89,0,127,1,-34,-109,-29,-75,99,16,-18,109,24,-18,-58,15,47,-29,-6,-43,0,-45,9,47,24,-91,34,127,-50,33,-18,127,-9,-113,34,34,16, 
  /* [0][2][][] */ -4,-39,-22,-60,-6,13,40,29,-3,10,-22,52,27,-35,-8,6,42,2,7,21,-13,30,-18,-28,2,-25,8,2,-8,-7,48,-74,-40,72,-27,-25,31,-33,-70,18,12,9,-33,13,13,-78,-12,-1,-7,7,15,-8,7,1,-23,6,-2,46,-51,35,-7,-14,8,15,-5,-9,22,-50,-49,9,-23,-15,-117,-33,3,19,14,-10,56,19,25,23,-41,16,10,24,-23,8,4,26,23,-4,21,38,-6,-31, -28,-10,-27,26,-44,71,-24,62,5,-6,51,-13,127,-6,-18,-17,-2,-41,-57,22,-24,77,-46,-114,-48,-48,101,71,15,43,52,-1,-123,65,-11,-23,-28,-25,-127,-3,44,-12,-14,30,-27,-48,-19,-48,-61,28,68,24,-12,-80,31,52,19,28,73,-55,18,-57,-6,1,19,-25,-127,-53,-7,-30,-62,20,36,-45,-27,-7,-46,26,-56,5,50,35,15,10,6,60,-94,127,15,127,-32,-18,113,-22,46,82, -11,-33,-26,28,14,64,-42,11,3,-6,-3,12,15,-49,-10,-12,-46,-6,10,18,-27,6,-20,4,-3,19,-4,48,0,-6,33,29,20,42,20,-23,-7,-24,-33,8,12,-12,21,3,-73,-32,-12,4,0,-15,-1,-3,-8,8,-15,-4,0,-48,10,-28,-24,47,12,-28,-10,-2,33,-52,48,6,51,-24,28,-57,-16,23,11,12,-6,23,-26,32,88,-14,-19,53,37,-10,108,14,2,-18,12,-23,-7,-50, 
};
const TfArray<96, float> quant17_scale = { 96, { 0.0086878100410103798, 0.0041157803498208523, 0.010482470504939556, 0.0015584308421239257, 0.0062986589036881924, 0.007579208817332983, 0.014799488708376884, 0.0031013821717351675, 0.0050951936282217503, 0.01856246218085289, 0.0071796439588069916, 0.016891080886125565, 0.0055254534818232059, 0.017893530428409576, 0.0079400260001420975, 0.0051788142882287502, 0.0044496436603367329, 0.012535231187939644, 0.0025209425948560238, 0.0095939897000789642, 0.001962033798918128, 0.0076890308409929276, 0.0061917616985738277, 0.014598103240132332, 0.0089904824271798134, 0.010214499197900295, 0.0059673520736396313, 0.0082738408818840981, 0.0046735554933547974, 0.0035894117318093777, 0.0044214329682290554, 0.0075211157090961933, 0.0050953477621078491, 0.0052192271687090397, 0.0082322303205728531, 0.0076585877686738968, 0.017092002555727959, 0.005186920054256916, 0.0020965186413377523, 0.006842347327619791, 0.010575590655207634, 0.013284193351864815, 0.016147477552294731, 0.0065196696668863297, 0.0081592770293354988, 0.0023504437413066626, 0.0097634093835949898, 0.009746224619448185, 0.0035596315283328295, 0.0074143302626907825, 0.009278387762606144, 0.0081224376335740089, 0.0092571619898080826, 0.011231543496251106, 0.012150710448622704, 0.018605438992381096, 0.015701347962021828, 0.010366445407271385, 0.0046858848072588444, 0.0036022604908794165, 0.012763407081365585, 0.0063112899661064148, 0.012678538449108601, 0.0053076725453138351, 0.0064781801775097847, 0.0081831905990839005, 0.003175119636580348, 0.0030853510834276676, 0.014530911110341549, 0.0097578139975667, 0.0085678081959486008, 0.0048006088472902775, 0.0054020890966057777, 0.0062944348901510239, 0.0063661751337349415, 0.010365420952439308, 0.021439544856548309, 0.0021659159101545811, 0.010873910970985889, 0.010454566217958927, 0.0066732717677950859, 0.012791100889444351, 0.0053912857547402382, 0.006718542892485857, 0.0054512056522071362, 0.0041608861647546291, 0.0057752067223191261, 0.0091808727011084557, 0.0089498087763786316, 0.0051554213277995586, 0.0085614947602152824, 0.0048464303836226463, 0.0059586009010672569, 0.018762329593300819, 1.1891645193099976, 0.0032655620016157627, } };
const TfLiteAffineQuantization quant17 = { (TfLiteFloatArray*)&quant17_scale, (TfLiteIntArray*)&g0::quant6_zero, 3 };
const MODEL_SECTION(EI_MODEL_SECTION) ALIGN(16) int32_t tensor_data18[96] = { 19737, 1012, 4851, -494, 4092, 5172, 16276, 5922, -1249, 16210, 5322, 2581, 7656, 36490, -330, -1934, 7800, 12540, 1978, -186, -655, 17114, 3937, 4018, 6685, 5061, 4735, 4054, 21, 54, 7152, 10143, 17654, 1611, 5773, -621, 15224, 9243, 756, 3538, 793, 11420, 10463, 4759, 3432, 11969, 13765, 5090, 4137, 3081, 303, -776, 12199, 6400, 6687, 11229, -370, 6746, 2350, 3638, 10436, 7446, 3283, 8053, 6521, 4660, 5535, -1000, 18194, 9474, 9641, -1133, -1204, 3070, 1206, 2366, 23323, 14566, 14700, -2692, 4002, -4619, -1498, 595, 7292, 4987, 6753, 4906, 9312, 3350, 7791, 4358, 15256, 21949, -9775, 14315, };
const TfArray<96, float> quant18_scale = { 96, { 0.00013277967809699476, 0.00030281476210802794, 0.00027566385688260198, 0.0010926971444860101, 0.00039385823765769601, 0.0001803981140255928, 0.00019288607290945947, 0.00060485623544082046, 0.00040951947448775172, 0.00011191573867108673, 0.0002625441993586719, 0.00032068369910120964, 0.0003496902936603874, 0.00013155855413060635, 0.00029614652157761157, 0.00035485811531543732, 0.00027760333614423871, 0.00018727626593317837, 0.00022115296451374888, 0.00075068802107125521, 0.00047249006456695497, 0.00014577800175175071, 0.00039402872789651155, 0.00019381826859898865, 0.00026097532827407122, 0.00041274321847595274, 0.00029822814394719899, 0.00021938799181953073, 0.0006726539577357471, 0.00033113572862930596, 0.00020941293041687459, 0.00018707325216382742, 0.00011308686953270808, 0.00068662688136100769, 0.00028731380007229745, 0.00050707731861621141, 0.00014811365690547973, 0.00028197246138006449, 0.00063414830947294831, 0.00024271874281112105, 0.00063885370036587119, 0.00016323722957167774, 0.00020580019918270409, 0.00016321630391757935, 0.00033182502374984324, 0.00027148160734213889, 0.00020403586677275598, 0.00028536212630569935, 0.00037497925222851336, 0.00028176995692774653, 0.00041119827073998749, 0.00084832357242703438, 0.00021789013408124447, 0.00024562413454987109, 0.00034476522705517709, 0.00016504839004483074, 0.00039525571628473699, 0.00025077519239857793, 0.00032927055144682527, 0.00045650225365534425, 0.00015862150758039206, 0.00019633123883977532, 0.00032328814268112183, 0.0003435038379393518, 0.00015628660912625492, 0.00024633167777210474, 0.00035250603104941547, 0.00031910339021123946, 0.00014803861267864704, 0.00012830250489059836, 0.00020936028158757836, 0.00046451864182017744, 0.00032291022944264114, 0.00043420170550234616, 0.00032551324693486094, 0.0005237701116129756, 0.00010289408965036273, 0.00030545625486411154, 0.00011229206575080752, 0.00044166826410219073, 0.00025639653904363513, 0.00044306533527560532, 0.00025171812740154564, 0.00051391462329775095, 0.0002176298585254699, 0.0003096400760114193, 0.00024112151004374027, 0.00028644243138842285, 0.000181672687176615, 0.00045618831063620746, 0.00017774537263903767, 0.00039381766691803932, 0.00014174693205859512, 0.00012789233005605638, 0.00029943528352305293, 0.00023259317094925791, } };
const TfLiteAffineQuantization quant18 = { (TfLiteFloatArray*)&quant18_scale, (TfLiteIntArray*)&g0::quant6_zero, 0 };
const MODEL_SECTION(EI_MODEL_SECTION) ALIGN(16) int8_t tensor_data19[96*1*1*16] = { 
  /* [0][0][][] */ 68,-42,108,125,64,-28,27,-44,127,-18,-77,-82,59,90,-21,-95, 
  /* [1][0][][] */ 48,79,-19,7,54,-21,12,32,33,81,-55,127,5,-36,93,-75, 
  /* [2][0][][] */ 48,-27,-3,-7,-37,46,-31,84,-74,-86,3,80,19,-127,83,-80, 
  /* [3][0][][] */ 105,99,-16,21,-127,-19,-52,-11,-16,-1,94,-62,-45,94,-40,-20, 
  /* [4][0][][] */ -6,-1,18,23,-27,18,-17,37,-57,-30,-6,-3,0,-127,18,-4, 
  /* [5][0][][] */ 106,-57,-14,-15,5,-108,-49,-2,-10,-23,-127,-12,41,-9,7,41, 
  /* [6][0][][] */ -102,-112,-25,127,-68,-4,-61,28,-121,-79,-112,-45,37,71,30,110, 
  /* [7][0][][] */ -8,13,-63,52,37,-127,-27,49,3,-31,17,16,8,36,-26,19, 
  /* [8][0][][] */ 20,-31,-17,-8,9,35,-59,-62,-2,21,-58,-6,-127,-4,-15,12, 
  /* [9][0][][] */ 14,-35,77,120,8,39,3,-67,127,-64,20,-29,10,20,-82,29, 
  /* [10][0][][] */ -127,-56,-23,-29,94,75,33,59,104,-46,-72,16,126,-65,-85,49, 
  /* [11][0][][] */ 45,-37,-127,33,64,32,-25,52,-8,-39,-18,-2,8,41,-58,-6, 
  /* [12][0][][] */ 127,-53,-20,3,-20,-75,-95,-56,33,5,-126,-24,-85,-18,7,76, 
  /* [13][0][][] */ 110,-117,21,-67,46,-57,-95,-127,-1,-124,-42,41,61,-85,2,15, 
  /* [14][0][][] */ -65,16,-68,-54,80,-127,31,-67,49,24,-11,-87,34,118,13,16, 
  /* [15][0][][] */ 31,2,66,43,53,-52,-37,-19,27,-58,-67,-13,-127,-63,-21,49, 
  /* [16][0][][] */ -127,68,-20,-5,-27,106,45,88,-35,18,103,16,8,16,-13,-34, 
  /* [17][0][][] */ 4,-13,-30,-40,-49,13,30,97,-38,127,-34,28,11,78,71,-10, 
  /* [18][0][][] */ -8,127,-44,-22,-2,-16,49,-67,1,119,-46,101,13,-76,33,-104, 
  /* [19][0][][] */ 7,-16,23,16,-10,38,2,19,13,15,-42,-22,-127,1,-11,34, 
  /* [20][0][][] */ 106,-72,-13,-84,-28,19,51,-71,-62,24,-127,-35,25,-1,36,0, 
  /* [21][0][][] */ 72,-9,127,48,-12,53,30,-2,3,28,-62,5,-23,110,0,1, 
  /* [22][0][][] */ 10,30,20,-12,-25,11,38,127,-18,-25,29,70,8,30,12,40, 
  /* [23][0][][] */ -38,33,-65,-8,10,-127,7,28,-20,-34,-2,-5,-72,-3,0,45, 
  /* [24][0][][] */ 32,-58,14,-70,44,-7,-39,-11,33,17,57,79,-31,85,127,43, 
  /* [25][0][][] */ -119,-127,-70,17,2,-27,12,5,-81,-2,-124,17,35,48,35,82, 
  /* [26][0][][] */ 12,-3,39,-12,7,6,-38,50,-85,-77,-11,30,0,-127,36,-2, 
  /* [27][0][][] */ -110,46,-31,28,44,-19,-5,36,39,-36,127,31,-22,10,-16,-35, 
  /* [28][0][][] */ -20,-14,19,30,-17,-7,-1,93,20,5,-33,-4,-127,-1,-7,46, 
  /* [29][0][][] */ -13,73,37,-37,43,-18,26,-36,-127,42,-24,0,6,23,-84,16, 
  /* [30][0][][] */ -16,19,-127,-26,29,-46,23,21,-28,8,1,-22,-40,-48,-9,6, 
  /* [31][0][][] */ 101,-35,-127,-8,33,-8,-60,64,-19,-16,-95,-66,17,-2,-71,37, 
  /* [32][0][][] */ -117,39,40,60,5,118,26,47,36,8,127,19,-21,44,-26,-29, 
  /* [33][0][][] */ 10,-2,127,-10,-63,19,22,-42,5,26,-10,16,-12,7,46,18, 
  /* [34][0][][] */ -43,-13,-54,-87,-5,-1,29,0,-5,-44,21,-127,-1,31,21,36, 
  /* [35][0][][] */ 1,-21,22,51,43,4,28,8,-95,58,11,23,-30,127,-46,-36, 
  /* [36][0][][] */ -112,43,-28,-7,-46,14,48,99,0,28,127,-31,16,28,33,16, 
  /* [37][0][][] */ -49,16,127,-45,-71,-68,17,-2,-12,7,-13,25,-12,-73,49,8, 
  /* [38][0][][] */ -3,-2,-6,29,44,-34,-40,17,0,-5,84,-16,127,23,-15,16, 
  /* [39][0][][] */ -26,-13,23,-37,-42,-85,36,127,-19,-11,11,-38,52,54,63,58, 
  /* [40][0][][] */ 61,-4,-21,-22,-12,78,-20,9,11,-16,2,-2,127,7,-17,-1, 
  /* [41][0][][] */ 13,-35,-31,-127,28,-12,-42,-64,4,-69,21,-55,-3,-17,-24,46, 
  /* [42][0][][] */ 53,40,9,113,-81,-5,-89,-1,-80,-39,49,-65,-57,127,-34,3, 
  /* [43][0][][] */ 17,127,-50,121,21,26,81,-51,-37,76,10,20,7,-32,38,52, 
  /* [44][0][][] */ -29,-16,-127,20,76,87,-72,34,-18,-24,59,-39,-2,-43,-46,-5, 
  /* [45][0][][] */ -6,25,-24,-127,-14,8,69,0,-22,24,-19,30,8,-98,17,-26, 
  /* [46][0][][] */ 21,27,48,-2,5,23,-9,63,26,-17,-2,10,10,127,37,-37, 
  /* [47][0][][] */ 21,-24,23,-47,-47,18,-59,62,-8,-38,31,31,25,-127,40,24, 
  /* [48][0][][] */ 9,-7,6,-127,-7,-10,-4,5,13,-32,14,-6,1,42,-2,62, 
  /* [49][0][][] */ 39,-57,20,96,79,-2,-13,49,-70,-6,17,46,-4,47,127,-2, 
  /* [50][0][][] */ -23,-4,52,-12,-6,127,-3,-69,48,6,115,5,88,-32,-14,-71, 
  /* [51][0][][] */ 33,36,15,12,25,7,-40,37,53,11,14,127,26,49,26,-51, 
  /* [52][0][][] */ -38,83,127,-4,-1,-43,6,-51,-31,1,0,46,-2,93,-111,-10, 
  /* [53][0][][] */ -9,-27,-46,-127,-53,1,15,-25,-36,29,15,-18,17,-23,37,5, 
  /* [54][0][][] */ 0,15,-15,-52,13,8,-12,12,38,-21,0,-24,-6,127,17,17, 
  /* [55][0][][] */ -6,-29,-49,8,22,-25,-9,-127,16,-69,-2,-31,-17,-62,-47,-37, 
  /* [56][0][][] */ 36,36,41,68,-4,-33,14,127,26,-21,9,-52,83,-29,-53,30, 
  /* [57][0][][] */ 110,-39,127,-5,-77,-32,16,-6,35,16,-67,5,64,-26,35,12, 
  /* [58][0][][] */ 100,98,16,79,-126,-4,6,76,-2,13,127,-18,-69,-22,-17,-79, 
  /* [59][0][][] */ 105,-25,-7,-9,-28,-27,-23,-1,-37,21,-127,-16,21,-14,19,23, 
  /* [60][0][][] */ -127,24,11,-17,17,25,2,49,6,-22,72,0,-54,9,29,-21, 
  /* [61][0][][] */ -76,57,35,31,38,-2,-62,-49,127,-89,73,-44,56,-21,-65,-86, 
  /* [62][0][][] */ -10,-50,-127,61,41,83,10,93,35,-53,23,-21,-76,7,-94,-4, 
  /* [63][0][][] */ -28,12,127,-45,-64,-74,33,-20,0,12,2,11,-8,-41,65,11, 
  /* [64][0][][] */ 32,54,-27,8,58,-20,103,-127,-46,96,-6,6,-7,-112,-28,63, 
  /* [65][0][][] */ 5,13,17,-27,68,7,-21,-127,-41,-79,-43,-54,5,-30,37,10, 
  /* [66][0][][] */ -127,9,-22,7,-21,22,14,-46,-49,-30,-52,39,56,9,30,65, 
  /* [67][0][][] */ 19,-102,37,114,-2,-17,-87,60,63,-18,-11,-11,6,-4,-127,-22, 
  /* [68][0][][] */ -18,-3,-26,127,-77,-21,-1,-36,-76,34,18,-26,-12,-109,-23,-37, 
  /* [69][0][][] */ 85,111,24,115,67,-1,73,-124,8,127,25,77,-7,-54,5,-13, 
  /* [70][0][][] */ 15,-42,-26,-89,127,-59,37,24,64,-55,69,-83,27,106,83,122, 
  /* [71][0][][] */ -3,63,17,83,44,-127,-49,86,36,-107,32,17,14,-63,-54,47, 
  /* [72][0][][] */ -127,-89,-23,66,12,15,-7,39,-53,-14,-92,57,59,12,17,112, 
  /* [73][0][][] */ -7,-18,-20,49,19,-23,-18,-15,77,-5,-22,3,4,127,-40,-37, 
  /* [74][0][][] */ 48,-29,-5,-31,-44,0,53,-8,-28,0,-63,0,-127,-2,30,42, 
  /* [75][0][][] */ -13,-27,-25,127,-32,3,-2,-8,-61,14,-15,-16,6,-41,-19,-29, 
  /* [76][0][][] */ -3,-20,0,36,17,-1,-40,-127,11,-123,-5,34,-45,-14,51,-28, 
  /* [77][0][][] */ 127,-46,47,65,-24,6,-36,3,53,16,-6,45,30,1,-47,27, 
  /* [78][0][][] */ -41,-4,74,27,21,24,-73,31,81,9,-40,-16,26,127,25,-32, 
  /* [79][0][][] */ -17,25,35,6,33,60,-59,-52,5,-49,72,-22,127,-23,-29,-36, 
  /* [80][0][][] */ -127,-65,-51,81,8,20,3,15,-119,-6,-87,35,89,-91,-24,37, 
  /* [81][0][][] */ 70,11,-69,50,127,95,-32,-27,11,-107,-14,-82,-29,10,-96,32, 
  /* [82][0][][] */ 127,107,12,34,-100,-26,-73,-12,-60,-21,103,-40,-15,92,2,-48, 
  /* [83][0][][] */ 127,46,18,-30,24,-19,-22,8,33,7,92,-44,-42,-35,-37,-92, 
  /* [84][0][][] */ -6,-102,-109,-49,58,54,7,-127,-41,-76,64,39,-31,-16,5,3, 
  /* [85][0][][] */ -31,-33,-63,-61,-33,-29,76,102,-34,127,-17,-56,1,70,74,-20, 
  /* [86][0][][] */ 102,-11,12,0,-8,-30,5,-19,16,6,-127,-4,22,32,-11,23, 
  /* [87][0][][] */ -14,29,-9,-32,-24,34,-35,51,-30,-43,42,13,17,-127,19,9, 
  /* [88][0][][] */ 6,-15,-95,-15,71,-31,-41,-127,-1,-46,-38,-6,-9,-19,18,-21, 
  /* [89][0][][] */ 34,-14,37,-127,21,5,-67,103,55,-56,19,17,-2,34,53,48, 
  /* [90][0][][] */ 0,4,-20,58,81,-5,99,-104,97,127,-41,18,-4,33,-11,-21, 
  /* [91][0][][] */ 49,-21,-48,-2,-24,-127,0,5,-23,11,-76,-7,38,-28,2,40, 
  /* [92][0][][] */ 24,19,127,58,44,44,-17,54,-61,8,-92,23,35,93,3,1, 
  /* [93][0][][] */ 127,-38,-42,-18,-22,-62,11,32,-34,54,-101,-8,-3,7,-8,63, 
  /* [94][0][][] */ 15,-17,48,75,116,-28,-11,54,6,-18,0,57,-6,127,-32,-77, 
  /* [95][0][][] */ -116,61,37,55,34,42,32,3,22,23,127,-15,-14,18,-14,-36, 
};
const TfArray<96, float> quant19_scale = { 96, { 0.00039779877988621593, 0.00090721220476552844, 0.00082586996722966433, 0.0032736454159021378, 0.0011799721978604794, 0.00054046034347265959, 0.00057787337573245168, 0.0018121076282113791, 0.0012268921127542853, 0.0003352918429300189, 0.00078656437108293176, 0.00096074625616893172, 0.0010476480238139629, 0.00039414037019014359, 0.00088723457884043455, 0.0010631304467096925, 0.0008316804887726903, 0.00056106678675860167, 0.00066255906131118536, 0.0022490096744149923, 0.0014155476819723845, 0.00043674086919054389, 0.0011804829118773341, 0.00058066617930307984, 0.00078186410246416926, 0.0012365502770990133, 0.00089347094763070345, 0.00065727130277082324, 0.0020152248907834291, 0.00099205982405692339, 0.0006273867329582572, 0.00056045857490971684, 0.00033880048431456089, 0.0020570869091898203, 0.00086077238665893674, 0.0015191687270998955, 0.00044373833225108683, 0.00084477011114358902, 0.0018998646410182118, 0.00072716863360255957, 0.0019139617215842009, 0.00048904749564826488, 0.00061656325124204159, 0.00048898480599746108, 0.00099412491545081139, 0.00081334018614143133, 0.00061127741355448961, 0.0008549252524971962, 0.0011234120465815067, 0.00084416335448622704, 0.0012319217203184962, 0.0025415190029889345, 0.00065278384136036038, 0.00073587300721555948, 0.0010328928474336863, 0.00049447361379861832, 0.0011841589584946632, 0.00075130525510758162, 0.00098647188860923052, 0.0013676492962986231, 0.00047521910164505243, 0.00058819487458094954, 0.00096854899311438203, 0.0010291138896718621, 0.00046822393778711557, 0.00073799275560304523, 0.0010560838272795081, 0.00095601176144555211, 0.00044351350516080856, 0.00038438549381680787, 0.0006272289901971817, 0.0013916658936068416, 0.00096741685410961509, 0.0013008384266868234, 0.0009752152836881578, 0.0015691791195422411, 0.00030826361034996808, 0.00091512588551267982, 0.00033641929621808231, 0.0013232077471911907, 0.00076814636122435331, 0.0013273932272568345, 0.00075413018930703402, 0.0015396528178825974, 0.00065200409153476357, 0.00092766032321378589, 0.00072238344000652432, 0.00085816177306696773, 0.00054427888244390488, 0.0013667087769135833, 0.0005325129022821784, 0.001179850660264492, 0.0004246640601195395, 0.00038315661367960274, 0.00089708750601857901, 0.00069683312904089689, } };
const TfLiteAffineQuantization quant19 = { (TfLiteFloatArray*)&quant19_scale, (TfLiteIntArray*)&g0::quant6_zero, 0 };
const MODEL_SECTION(EI_MODEL_SECTION) ALIGN(16) int32_t tensor_data20[16] = { -40261, 2680, 3418, -4882, 1780, -5747, -13392, -47353, 6653, 25175, 31182, -2012, -4730, -22868, 38914, -47663, };
const TfArray<16, float> quant20_scale = { 16, { 0.00062910257838666439, 0.0007179518579505384, 0.0012421119026839733, 0.00096213974757120013, 0.0009434313396923244, 0.0011267344234511256, 0.00093005801318213344, 0.00050101371016353369, 0.00066277006408199668, 0.00059021014021709561, 0.00080240529496222734, 0.00069035583874210715, 0.0011952531058341265, 0.0012637908803299069, 0.00048666333896107972, 0.00056503643281757832, } };
const TfLiteAffineQuantization quant20 = { (TfLiteFloatArray*)&quant20_scale, (TfLiteIntArray*)&g0::quant8_zero, 0 };
const MODEL_SECTION(EI_MODEL_SECTION) ALIGN(16) int8_t tensor_data21[16*1*1*48] = { 
  /* [0][0][][] */ -17,-1,-23,10,23,0,-4,110,-50,17,42,-4,15,-10,-14,12,12,-18,-3,-7,74,-6,21,127,-15,91,2,-8,24,-13,25,-30,-16,47,20,-55,11,47,19,-9,-110,-23,22,41,40,28,-127,-51, 
  /* [1][0][][] */ -29,-14,21,15,-31,9,0,50,-48,-39,1,-40,-21,-18,0,-8,-22,111,-8,24,11,6,-26,-12,22,-39,20,20,-23,-82,-34,24,-20,-2,34,0,-1,-41,-2,21,-13,-28,127,9,13,-1,21,-10, 
  /* [2][0][][] */ -22,-7,-8,-41,-2,-66,10,-19,-4,10,14,22,18,6,-12,12,1,-14,-25,-9,-1,3,-1,-127,-10,74,-17,0,-1,-25,-6,-10,-12,51,11,-1,22,13,26,2,-40,3,-15,-4,-7,-9,16,10, 
  /* [3][0][][] */ -9,35,-3,-30,-1,-1,2,-5,-18,-7,4,41,-127,7,-5,-4,5,5,-20,5,-35,3,4,15,-10,-9,0,22,-8,16,1,14,1,3,17,20,-18,25,38,5,9,5,30,-32,2,-8,6,21, 
  /* [4][0][][] */ 30,-30,13,9,20,30,27,-26,-24,-3,-9,-17,-2,4,0,19,17,-8,-79,8,-3,8,14,67,5,-26,-3,50,12,-76,18,7,17,-39,33,-127,10,33,-2,20,-23,22,11,-21,-14,-22,12,2, 
  /* [5][0][][] */ 28,6,-20,58,2,-3,7,23,9,-5,34,16,2,50,-3,-3,-30,23,25,4,7,10,1,-29,5,-50,4,-17,-6,-6,3,2,56,-127,2,29,-20,-15,10,3,-90,58,21,-2,-4,-2,-92,-7, 
  /* [6][0][][] */ 26,0,9,9,-14,-5,-4,-12,0,10,2,9,-20,17,5,-3,-2,-17,127,3,0,15,13,-33,1,6,30,-11,-13,0,-1,8,2,-9,32,-38,1,-47,71,19,3,-6,-9,4,-5,-2,0,-9, 
  /* [7][0][][] */ -45,-17,-8,29,-9,81,-5,58,-7,40,-7,127,85,8,-20,0,3,-27,-7,-28,-33,-13,-16,73,-6,-36,-57,-30,-8,-15,-14,-4,-1,3,-31,4,15,-52,110,-5,26,26,-76,-74,19,-4,-3,8, 
  /* [8][0][][] */ -50,-43,-2,5,-6,7,1,25,-2,-71,10,51,47,3,21,9,-22,66,-34,6,-49,25,-12,-16,-1,2,-1,54,-12,115,-4,7,3,6,-23,-124,-127,64,32,28,19,-4,113,-20,7,26,25,22, 
  /* [9][0][][] */ -24,6,0,31,13,-31,-8,-1,53,-44,14,58,-60,0,25,1,-9,25,-34,-28,49,15,-18,-16,7,10,59,-23,3,10,12,-14,4,22,75,-101,-17,-127,-95,19,-27,25,54,9,1,4,-18,-50, 
  /* [10][0][][] */ -21,-8,-38,-127,40,91,13,-16,1,31,30,12,50,-54,-37,23,29,-37,54,-21,35,-24,35,46,-51,-103,7,-31,45,31,50,-42,-22,-84,20,-4,21,-44,4,-30,-36,-60,-9,11,14,12,27,-36, 
  /* [11][0][][] */ -4,50,-6,65,33,-62,-76,-19,3,54,-21,6,-6,50,9,-78,16,41,7,-13,-49,-92,13,-2,14,-43,32,-24,48,-49,25,-101,42,-13,-34,-92,86,10,-4,-127,-3,57,101,-68,-19,-59,39,22, 
  /* [12][0][][] */ 122,-7,-15,11,4,21,8,106,21,-14,-59,-28,1,7,-14,-4,-3,6,-5,-10,3,-2,7,16,1,12,-7,6,-7,12,-8,18,-3,-68,-8,7,-9,-18,-25,-5,-20,-77,5,-127,-59,-2,83,-8, 
  /* [13][0][][] */ 10,5,5,5,8,-11,1,-1,0,11,9,23,-3,4,3,-1,4,5,8,3,13,-11,6,-3,1,3,11,127,13,-6,6,-5,7,-2,-42,23,11,-5,8,-16,-15,0,1,2,0,-5,-11,-12, 
  /* [14][0][][] */ 69,-27,57,-62,53,19,29,-94,-53,-52,-10,119,-67,8,54,3,55,21,-50,61,17,17,77,-9,18,62,-29,-112,26,-36,68,44,-14,82,-127,-48,-39,44,86,14,-29,2,45,-1,11,8,5,-25, 
  /* [15][0][][] */ -1,-48,-65,-30,61,24,80,-54,-1,14,-13,-36,81,25,-113,63,62,41,92,-79,-95,-29,70,-12,-90,38,33,56,70,57,56,-35,35,65,106,124,-13,-107,-16,-34,100,57,127,-46,-8,-23,-11,62, 
};
const TfArray<4, int> tensor_dimension21 = { 4, { 16,1,1,48 } };
const TfArray<16, float> quant21_scale = { 16, { 0.026736859232187271, 0.03051295317709446, 0.052789755165576935, 0.04089093953371048, 0.040095832198858261, 0.047886211425065994, 0.039527464658021927, 0.02129308320581913, 0.028167728334665298, 0.025083931162953377, 0.034102223813533783, 0.029340123757719994, 0.050798255950212479, 0.053711112588644028, 0.02068319171667099, 0.024014048278331757, } };
const TfLiteAffineQuantization quant21 = { (TfLiteFloatArray*)&quant21_scale, (TfLiteIntArray*)&g0::quant8_zero, 0 };
const MODEL_SECTION(EI_MODEL_SECTION) ALIGN(16) int32_t tensor_data22[48] = { 4715, 34862, -826, 41328, 4733, 128363, -2218, 50858, 4723, 31911, 25647, -71, 3270, 28498, -1346, -2195, -421, 1013, 2674, -1487, 717, -4010, -188, -21868, -6272, 48298, 133591, 107347, 3309, 4292, -2571, 843, 23715, 1016, 27852, 7389, 33931, 2598, 61112, 2643, 2286, 74583, 238, 5099, 46277, 482, 5554, 50360, };
const TfArray<1, int> tensor_dimension22 = { 1, { 48 } };
const TfArray<48, float> quant22_scale = { 48, { 6.9444417022168636e-05, 3.4616958146216348e-05, 0.00016938349290285259, 5.4268846724880859e-05, 0.00015537484432570636, 6.3299630710389465e-05, 0.00015788417658768594, 0.00011255355639150366, 7.354310218943283e-05, 3.910552550223656e-05, 5.0314840336795896e-05, 0.00010341325105400756, 3.9457409002352506e-05, 3.522404222167097e-05, 0.00015137463924475014, 0.00019920173508580774, 0.00016322611190844327, 6.2436345615424216e-05, 0.00010786917118821293, 0.00016304207383655012, 9.2550610133912414e-05, 0.00021567297517322004, 8.9214328909292817e-05, 0.00013473787112161517, 8.7137501395773143e-05, 9.0583955170586705e-05, 3.2982243283186108e-05, 6.211847357917577e-05, 0.00012357348168734461, 9.8271593742538244e-05, 0.0001185881847050041, 0.00016373679682146758, 4.2113333620363846e-05, 0.00012833021173719317, 3.1137020414462313e-05, 4.616240767063573e-05, 0.00017502473201602697, 8.2864775322377682e-05, 9.2294540081638843e-05, 0.00010339233267586678, 9.8500597232487053e-05, 7.690657366765663e-05, 8.7203676230274141e-05, 7.7067415986675769e-05, 3.0245799280237406e-05, 0.0001695642713457346, 8.1987898738589138e-05, 2.9325272407731973e-05, } };
const TfArray<48, int> quant22_zero = { 48, { 0,0,0,0,0,0,0,0,0,0,0,0,0,0,0,0,0,0,0,0,0,0,0,0,0,0,0,0,0,0,0,0,0,0,0,0,0,0,0,0,0,0,0,0,0,0,0,0 } };
const TfLiteAffineQuantization quant22 = { (TfLiteFloatArray*)&quant22_scale, (TfLiteIntArray*)&quant22_zero, 0 };
const MODEL_SECTION(EI_MODEL_SECTION) ALIGN(16) int8_t tensor_data23[1*3*3*48] = { 
  /* [0][0][][] */ 69,-91,99,67,52,-35,104,-64,60,-87,-78,48,53,-41,-73,-91,101,75,50,77,66,-73,-83,52,-33,-40,-66,-65,-67,60,-60,-114,-12,42,70,65,-63,53,-50,-24,50,-72,60,61,-94,10,76,-34, 81,-95,127,85,-79,-69,-58,-84,96,-101,-62,73,80,-107,-95,92,-39,93,84,127,86,-116,54,72,-53,-77,-70,-80,55,79,-28,-127,-85,80,82,83,-81,83,-82,-16,76,-93,85,90,-74,-127,94,-100, 35,-46,70,36,18,-42,-48,-39,42,-31,5,33,30,-78,-56,-1,-54,36,36,69,34,-55,30,26,-29,-46,-46,-21,32,29,89,-88,-84,46,36,34,-30,40,-38,-10,41,-40,36,43,-6,-10,36,-71, 
  /* [0][1][][] */ 92,-111,-41,93,55,-82,127,-89,87,-112,-71,81,84,-109,-12,-127,127,105,74,-37,83,107,-127,74,74,-76,-93,-99,-127,87,-68,-8,-87,75,106,96,-85,79,-81,89,84,-101,88,92,-90,106,93,-88, 127,-127,-64,127,-127,-127,-90,-127,127,-127,-127,127,127,-127,-21,99,-67,127,127,-52,127,127,68,127,127,-127,-127,-127,52,127,-29,16,-127,127,127,127,-127,127,-127,127,127,-127,127,127,-127,-12,127,-127, 62,-78,-33,66,36,-61,-49,-63,56,-42,-60,59,49,-53,-16,13,-63,51,59,-32,58,65,51,66,66,-66,-63,-45,36,55,127,16,-60,71,49,50,-51,61,-59,57,61,-60,55,61,-61,-68,60,-55, 
  /* [0][2][][] */ 46,-52,-45,48,26,-54,64,-41,42,-73,-4,39,56,-72,82,-79,73,49,35,-32,26,-8,-77,30,-23,-45,-50,-51,-74,31,-42,90,-72,39,49,43,-27,37,-44,-88,48,-51,43,46,-25,15,40,-70, 72,-75,-48,80,-55,-63,-72,-67,51,-77,-65,60,75,-46,127,32,-46,59,61,-44,55,-15,42,68,-47,-66,-79,-64,30,62,-25,115,-54,64,58,60,-50,61,-68,-107,71,-66,63,62,-87,48,63,-51, 42,-41,-28,46,28,-18,-18,-34,15,-26,-50,29,33,4,68,24,-36,22,29,-33,29,3,40,44,-23,-28,-50,-25,35,33,58,67,1,33,16,23,-23,30,-29,-56,30,-32,29,28,-64,9,31,-3, 
};
const TfArray<4, int> tensor_dimension23 = { 4, { 1,3,3,48 } };
